tree
version=v4
num_class=1
num_tree_per_iteration=1
label_index=0
max_feature_idx=20
objective=lambdarank
feature_names=embedding_similarity genre_overlap keyword_overlap actor_overlap director_match collection_match candidate_avg_rating candidate_rating_count candidate_positive_ratio candidate_bayesian_norm candidate_popularity_rank rating_count_log score_diff candidate_popularity_percentile embedding_rank similarity_percentile title_token_overlap genre_overlap_count keyword_overlap_count candidate_rating_cv baseline_score
feature_infos=[0.19054809212684631:0.99999439716339111] [0:1] [0:1] [0:1] [0:1] [0:1] [0:5] [0:91921] [0:1] [0.048602189868688583:1] [1:29986] [0:11.428695678710938] [0:10] [0.096017606556415558:0.99996984004974365] [1:300] [0.0035000001080334187:1] [0:1] [0:6] [0:23] [0:1.1991120576858521] [0.18023550510406494:0.80078208446502686]
tree_sizes=7102 7087 7062 7047 7059 7045 7055 7073 7055 7073 7066 7059 7058 7038 7044 7010 7083 7031 7060 7040 7068 7067 7028 7049 7037 7034 7021 7118 7037 7031 7042 7032 7114 7053 7022 7060 7020 7054 7013 7047 7050 7052 7065 7148 7045 7052 7145 7051 7049 7068 7060 7072 7105 7073 7075 7049 7058 7079 7063 7040 7070 7052 7053 7071 7078 7094 7098 7064 7067 7074 7078 7044 7077 7094 7056 7048 7067 7062 7090 7056 7060 7049 7040 7095 7111 7077 7080 7083 7087 7126 7056 7053 7077 7078 7071 7085 7087 7075 7099 7106 7056 7094 7106 7101 7060 7107 7048 7095 7099 7150 7165 7093 7064 7036 7091 7039 7044 7021 7055 7096 7040 7084 7080 7097 7080 7068 7061 7079 7031 7075 7081 7116 7079 7061 7056 7064 7079 7097 7070 7076 7108 7099 7103 7077 7098 7119 7071 7063 7061 7102 7032 7065 7071 7047 7083 7059 7063 7062 7094 7114 7034 7070 7074 7061 7129 7137 7069 7092 6988 7056 7060 7012 7106 7054 7035 7142 7132 7166 7008 7002 7021 7069 7110 7002 7077 7048 7165 7106 7080 7032 7088 7118 7090 7115 7055 7061 7047 7086 7059 7106 7093 7110 6982 7047 7072 7033 7034 6987 7055 7075 7072 7114 7055 6960 7081 7077 6964 7114 6996 7030 7015 7021 7041 6951 7087 7051 7084 7039 7087 7056 7121 7039 7028 7076 7104 7084 7035 7054 7106 7076 7035 6977 7047 7052 7025 7133 7079 7083 7048 7024 7098 7023 7024 7086 7026 7008 6914 7061 7057 6948 7081 6986 7011 7037 7090 7012 6987 7055 7024 6963 7072 7025 7050 7051 7027 7020 7057 7086 7020 7134 7096 7094 7039 7015 7053 7008 6941 7078 7085 6972 7049 7011 7051 7091 7034 7011 7013 6973 6972 7024 7100 7035 7121 7066 7092 7043 7054 7072 7026 6975 7041 7032 7051 7107 6968 7051 7046 7047 6986 7044 7023 7017 7075 7076 7082 7004 7104 7018 6965 7033 7044 7067 7030 7023 7035 6955 7021 7012 7000 6953 7034 6997 7014 7071 7017 6991 6999 7071 7007 6960 7009 7032 7072 6975 7031 7005 7070 7002 7009 7026 6973 6964 6997 7038 7025 7033 7010 6999 7009 7012 7019 7077 7083 7088 7053 7067 7083 7010 6998 7019 7092 7072 7049 7059 7023 7009 6957 7013 7051 7036 7095 7003 7103 6999 7021 7042 7044 7030 7079 6973 7035 7007 6969 6951 6993 7064 7036 7076 6994 7054 7042 7061 7083 7043 7020 6980 6975 6973 7007 6975 7003 6928 6945 7032 7012 7036 7004 6986 7080 7029 7014 7025 7056 7063 6997 7009 7006 7014 6953 6986 7088 7002 7027 7078 7028 7077 7053 7065 7030 7050 7015 7016 6997 6985 7041 7024 6985 7090 7036 7025 7059 7013 7000 7067 7032 7022 7076 7025 7056 7014 6946 7036 7024 7001 7023 7037 6968 7031 7045 7058 7043 6990 6946 7022 7062 7051 7022 7053 7006 6954 7075 7051 7029 7025 6956 7095 7023 6999 6996 7061 7035 7003 7079 6974 6981 7020 6954 6969 7013 7049 6940 7002 7008 7050 7049 7038 7022 7047 6965 7109 7034 7002 7035 7089 7005 7027 7052 7098 7029 7060 7029 6975 7009 6948 6973 7029 7019 6963 7014 7067 7039 7016 7063 7104 6984 7044 6968 7108 7020 7051 7059 7012 6936 7069 6965

Tree=0
num_leaves=63
num_cat=0
split_feature=10 8 10 8 5 8 10 10 12 8 20 8 19 8 10 9 6 19 6 19 12 3 19 20 19 19 3 16 8 6 20 5 19 10 20 19 6 8 16 10 10 10 8 6 6 6 9 12 9 19 6 8 8 19 3 10 12 19 8 6 9 8
split_gain=180112 28503.7 8618.48 7657.59 5252.61 3301.38 2485.56 2417.89 2286.04 1259.51 969.04 864.196 744.329 786.08 627.471 576.477 558.914 605.759 506.462 495.441 466.723 437.55 420.881 393.022 384.777 377.284 358.621 356.516 347.588 403.933 307.451 303.543 298.57 296.313 289.3 281.424 268.671 257.328 255.713 253.228 241.979 234.071 307.153 460.732 263.846 251.688 266.612 257.57 214.733 203.643 200.243 318.618 198.795 197.076 191.642 184.949 179.519 239.43 179.151 262.401 179.006 327.276
threshold=4042.0000000000005 0.40414786338806158 7155.0000000000009 0.60984259843826305 1.0000000180025095e-35 0.48093944787979132 1789.5000000000002 1834.0000000000002 1.3499999642372134 0.51018545031547557 0.30667068064212805 0.69937613606452953 0.27272953093051916 0.25578348338603979 11977.000000000002 0.57972705364227306 3.9667345285415654 0.22406651824712756 3.9022420644760136 0.22601729631423953 1.1500000357627871 0.084835831075906767 0.2207804471254349 0.32922555506229406 0.28912976384162908 0.26077592372894293 0.15230593830347064 0.074175827205181136 0.55567607283592235 3.6547950506210332 0.55524858832359325 1.0000000180025095e-35 0.28321552276611334 12725.000000000002 0.33818833529949194 0.34652067720890051 3.770084142684937 0.28814247250556951 0.060661764815449722 3545.0000000000005 4402.0000000000009 1677.5000000000002 0.54078340530395519 3.6547950506210332 3.6971057653427128 3.4078167676925664 0.64557746052742015 0.84999999403953563 0.60641694068908703 0.27480693161487585 3.1351873874664311 0.31820143759250646 0.33361019194126135 0.32613648474216467 0.38005313277244573 1206.0000000000002 0.75000000000000011 0.33091951906681066 0.3481911569833756 3.4078167676925664 0.62288260459899913 0.47815121710300451
decision_type=2 2 2 2 2 2 2 2 2 2 2 2 2 2 2 2 2 2 2 2 2 2 2 2 2 2 2 2 2 2 2 2 2 2 2 2 2 2 2 2 2 2 2 2 2 2 2 2 2 2 2 2 2 2 2 2 2 2 2 2 2 2
left_child=1 4 5 6 8 20 10 11 12 33 38 21 58 -14 18 32 17 -7 -11 55 31 24 -17 -19 -5 30 41 -6 29 35 -9 49 -8 52 -15 39 -30 -10 -3 60 -25 42 43 45 -44 -21 47 -47 -42 -2 53 -52 -4 -36 -18 -12 -29 -58 -1 -60 -24 -62
right_child=2 3 9 7 27 16 15 25 37 14 19 -13 13 34 -16 22 54 23 -20 26 -22 -23 28 40 -26 -27 -28 56 36 -31 -32 -33 -34 -35 50 -37 -38 -39 -40 -41 48 -43 44 -45 -46 46 -48 -49 -50 -51 51 -53 -54 -55 -56 -57 57 -59 59 -61 61 -63
leaf_value=-0.081456135809248112 -0.074093366043723671 0.029091340590310735 -0.093157561088813123 0.066500985885778574 -0.0059682332112321636 -0.04952330019892872 0.061188527442287102 0.044556836179996284 -0.079259965801443594 -0.061900512394697252 0.032067650875184692 0.090109565376877532 -0.044144433305700788 -0.014809144896936997 -0.085833408993426744 -0.02982106918962206 0.018401752087983791 -0.03110969293256154 -0.0056718060611060227 0.074294797263776705 -0.081026152805852736 0.089274092427776272 0.036660577465720399 0.036905952685767844 -0.091271706147531745 -0.025187363597513786 0.078024677058001327 0.066195827352092715 0.044209433045865693 -0.044932433577833691 0.096102588327943217 0.030312481450247088 -0.020737695330710668 -0.098411014963651108 0.064495993147183767 -0.089109125824965163 -0.012489424311257269 -0.050211385812124809 -0.017203632067985582 -0.028299040689877486 0.025620525758106374 0.078415326282434472 0.082121073912531969 -0.023555603229288645 0.05485188342347716 0.039391533409165402 0.051824697134672075 -0.0093880606341412536 -0.01541618863330046 -0.045945039553451181 -0.046232908446479717 0.01112327990010064 -0.077715116709812182 0.011506475732060498 0.090815755048435018 -0.024966569255087064 0.06192067453680708 0.017294893719305936 0.020849639773278847 -0.06764158362511756 -0.030089793620516971 0.022923219581077212
leaf_weight=487.12601190132227 953.7197641961593 1934.4821941553437 5618.9716973262293 7095.9635621303023 303.14082999560924 1067.4287755103214 835.46643405436407 4056.7288137883806 2088.3570728944615 2262.8534234763047 638.67066940294899 20852.526053648653 1411.3563469875371 2124.9285667073145 2715.9376558424101 639.16608725798505 761.75810608132451 1014.8328300586181 486.58485085761276 849.37660469468756 2579.8033500966594 2699.7830846758879 893.72082881364622 507.50604867290531 38.855861812786316 182.27783656730753 2160.3292908813237 1110.8377865389339 1163.8274763608024 369.23237464145495 311.50159131502733 107.78218786112848 128.28536496683228 19677.912957459615 288.1331154131185 68.738851710157178 254.65216357667123 1200.7433976496795 352.6580658003877 320.95318138796574 457.08241943142639 1032.8003944467673 1363.1422136738329 226.49102420889176 2539.7626762842519 975.54481285810471 3693.435116388735 374.50943206506054 1053.5721535392095 1969.3425552192566 294.78305316946717 1355.6085815496517 3312.7892044834553 448.73341547059317 103.8184262230061 182.83293318263895 568.75837075384334 637.43661380725098 132.91676051625109 226.57902754545648 402.85621726292266 1049.7596228141592
leaf_count=63183 124538 119834 824441 137659 7516 103455 24437 121162 270411 272464 22921 127473 149654 205998 418770 56636 41349 118354 37776 14807 342987 7055 37913 17959 1259 13809 11059 5360 43871 34602 406 950 11352 3142122 4990 8509 15708 119969 27616 27297 20094 15748 14013 15621 57669 32169 95339 23262 59481 214425 25301 58412 454337 22586 165 15603 2992 9342 7494 25141 31129 49963
internal_value=2.94798e-06 0.0498441 -0.078543 0.0647631 -0.0180337 -0.0391144 0.0419407 0.0793037 -0.0344581 -0.0907813 0.0521328 0.0843472 -0.0178444 -0.0115767 -0.0687875 0.0147845 -0.00942189 -0.0171288 -0.0519494 0.0570502 -0.0653953 0.0721293 0.008158 -0.00572785 0.0656418 0.0452916 0.0593923 0.0450222 0.0135241 0.00415678 0.0482326 -0.0520907 0.0502833 -0.0949828 -0.0013899 0.0107815 0.0340306 -0.0686553 0.021953 0.0133558 0.00703543 0.0557512 0.0534157 0.0464252 0.064376 0.0491149 0.0448744 0.0258599 -0.00299961 -0.0551291 0.0105547 0.000878662 -0.08743 0.0322267 0.0270872 0.0193742 0.0516933 0.0383373 -0.0616973 -0.0349236 0.0190537 0.00822104
internal_weight=115019 70367.8 44651.7 57688.3 12679.4 10576.6 22450.7 35237.6 10059.3 34075 16324 30687.1 6770.16 5923.54 5465.38 6126.66 4966 4100.42 2749.44 14036.9 5610.65 9834.6 5162.91 3032.99 7134.82 4550.51 13215.4 2620.17 4523.74 3105.26 4368.23 3030.84 963.752 28609.7 4512.19 2736.03 1418.48 3289.1 2287.14 2667.29 2018.16 11055.1 10022.3 6119.36 3902.9 5892.87 5043.49 1350.05 1510.65 2923.06 2387.26 1650.39 8931.76 736.867 865.577 821.504 2317.03 1206.19 846.622 359.496 2346.34 1452.62
internal_count=8387917 2194250 6193667 1215901 978349 1043757 807078 408823 953139 5149910 465661 273446 562759 466941 729010 341417 360857 319343 310240 318211 682900 145973 305628 215888 138918 135377 279687 25210 248992 189413 121568 339913 35789 4420900 317287 154811 59579 390380 147450 146302 97534 268628 252880 181198 71682 165577 150770 55431 79575 338963 111289 83713 1278778 27576 41514 38524 17694 12334 95818 32635 119005 81092
is_linear=0
shrinkage=0.05


Tree=1
num_leaves=63
num_cat=0
split_feature=11 11 11 11 11 12 0 8 4 5 3 11 11 10 12 12 4 11 4 8 0 10 12 20 10 12 0 3 20 15 10 0 12 8 13 13 13 0 0 8 10 20 10 12 2 20 4 20 8 12 2 12 17 20 8 11 8 13 11 10 17 20
split_gain=373673 32571.3 11214.7 4580.09 3611 1519.56 1450.41 1409.03 1045.8 994.869 980.129 976.566 807.678 773.008 687.047 665.247 620.57 531.714 509.569 476.926 459.313 431.664 407.596 402.615 366.813 364.875 353.256 343.722 312.839 299.433 296.793 294.786 286.585 261.065 260.205 243.874 241.503 228.295 227.436 223.713 222.383 217.9 216.119 204.827 202.402 192.954 187.505 186.761 185.591 185.066 184.11 178.876 175.309 204.981 172.958 166.715 163.759 159.67 154.216 191.896 151.406 152.71
threshold=7.8264424800872812 9.4471893310546893 6.6140549182891855 10.068979263305666 8.6849079132080096 0.84999999403953563 0.44039316475391393 0.48370410501956945 1.0000000180025095e-35 1.0000000180025095e-35 0.072973996400833144 5.6629543304443368 10.817892551422121 1314.5000000000002 0.75000000000000011 0.65000000596046459 1.0000000180025095e-35 7.1850080490112314 1.0000000180025095e-35 0.49702565371990209 0.41127720475196844 284.50000000000006 0.94999998807907116 0.31770093739032751 3605.5000000000005 1.1500000357627871 0.34747776389122015 0.069178212434053435 0.37118208408355718 0.29842466115951544 1879.0000000000002 0.38741412758827215 1.0500000119209292 0.45722997188568121 0.86773085594177257 0.99163424968719494 0.98055529594421398 0.40205951035022741 0.37337417900562292 0.37242087721824652 1789.5000000000002 0.32495546340942388 7321.5000000000009 1.2500000000000002 0.043015725910663612 0.33930657804012304 1.0000000180025095e-35 0.30917610228061682 0.73656609654426586 1.0500000119209292 0.15268065780401233 1.4499999880790713 1.5000000000000002 0.31520003080368048 0.65977853536605846 9.0665855407714862 0.68578284978866588 0.99299085140228283 7.2502806186676034 2258.5000000000005 1.5000000000000002 0.437786415219307
decision_type=2 2 2 2 2 2 2 2 2 2 2 2 2 2 2 2 2 2 2 2 2 2 2 2 2 2 2 2 2 2 2 2 2 2 2 2 2 2 2 2 2 2 2 2 2 2 2 2 2 2 2 2 2 2 2 2 2 2 2 2 2 2
left_child=2 4 11 10 5 8 22 9 13 25 14 46 26 28 31 27 17 41 -13 37 -14 35 38 -15 -19 58 29 30 52 -5 55 -3 50 -23 -25 -16 49 -7 -6 -24 -33 -9 45 -11 -26 -21 -1 -31 -34 -17 -28 -39 53 -2 -35 -8 -43 -22 -4 -60 -36 -62
right_child=1 3 7 12 6 19 15 16 -10 43 -12 18 20 23 21 36 -18 24 -20 42 57 33 39 34 44 -27 32 -29 -30 47 -32 40 48 54 60 -37 -38 51 -40 -41 -42 56 -44 -45 -46 -47 -48 -49 -50 -51 -52 -53 -54 -55 -56 -57 -58 -59 59 -61 61 -63
leaf_value=-0.09155873596698233 -0.025121882035945745 0.033097002559740435 -0.063277381732068316 0.058750560540843225 0.0010344622357909108 -0.060004742840585094 0.021831961411735219 -0.061867865269283388 0.068665268287252626 0.035636821875673866 0.074313006955535374 -0.076977591989238994 0.063766646947692712 -0.0020379572244251724 -0.019199532283248055 0.034110373114707486 0.053145578883996049 -0.036947138855107413 0.023718253213820588 -0.023012405604754052 0.073468038907635036 0.022796123029938956 -0.037391816900602476 0.039079976902014459 -0.017455617283182519 -0.074964623189630944 0.068443185977095866 0.062449960892858397 0.0060880085592158739 0.048323706137480521 0.04920036212700557 0.050481982710098294 0.065131975500830427 0.053551915670556186 0.026542600231319508 0.02322255667813572 0.0073403405695245567 -0.019105601272864342 0.020666221683069766 -0.0004378665124068835 0.066337022526962941 -0.044585661929423107 0.050238928150649169 -0.050912219232898397 0.017745528823677154 0.0034366031491518314 -0.030649319989109771 -0.0095215887258491647 0.049391124011151123 0.016991478108265786 0.083923092648018366 -0.047038190076742731 -0.033955242314078697 0.009137558522738393 0.035658547496906542 0.037039149530537836 -0.0091517720178047653 0.082449652333030421 -0.05666869227272156 -0.029922267847614599 0.0012127820852124861 0.030286102909327407
leaf_weight=60502.67800942497 1003.8752248697565 2127.9234093468403 2590.5214092897077 1182.2064083428122 2114.5800157063641 707.43313951458549 2780.2334500706347 1666.9530660705932 669.69321474479511 320.79530532981153 3258.0528450794518 12078.678034817625 5295.7460617665201 2790.0331194452592 408.30023582372814 3716.963997518993 209.83023338404018 2732.2828467516811 126.95813057734631 1440.6198207130074 6819.6645668873098 1604.2755694260122 564.96318888769019 1490.1804864094011 2268.0933653668617 3614.3107282249548 28536.021838822169 1508.4236758053303 1679.4563576122746 240.15923110838048 3487.7288630289549 15202.855945260264 4601.4486960842041 3087.5881994478405 1703.1541927597718 1989.8044727288652 2105.396840598667 1796.2489732965769 4879.9757820374798 1488.8477715955814 2588.1063212852459 1627.5193842578155 155.4464846472838 86.87244026659755 498.02363074175082 1322.671231304761 126.61686700867722 333.04024724010378 3157.579945481848 2744.4311918670428 2059.4201595494524 841.73509256745456 1384.3784437294817 772.65869611839298 2400.4690707544796 5123.5479927390697 407.76240705529926 18032.506402234547 1746.9583040318394 1088.4449004304479 2098.7738363742828 575.52399775164668
leaf_count=5351157 25339 21167 157844 5126 38090 41736 33806 80897 3611 4059 10273 814410 14681 79150 2392 41893 2090 82018 3626 33389 12185 30899 32661 30694 84361 272663 83482 7310 23670 2327 39043 78775 21197 21447 24710 16288 29916 66022 64518 28724 17027 67810 3281 3644 12895 25172 6945 2667 7417 51060 3057 49194 37326 10117 10758 39659 11456 21144 76346 57107 47815 8374
internal_value=-3.67874e-05 0.0475757 -0.0799361 0.0637604 0.0148786 -0.00138916 0.0257709 -0.0455714 0.00767769 -0.0592115 0.0482924 -0.0888338 0.0709526 0.00465184 0.0454097 0.0328481 -0.0318771 -0.0338161 -0.0759302 -0.0218958 0.0771361 0.0343381 0.00898076 0.0135986 -0.023953 -0.0626569 0.0663048 0.040021 -0.0113507 0.0443713 0.037051 0.0506848 0.0673086 0.0405388 0.0210337 0.0159998 0.0220471 -0.0347823 0.0147312 -0.0106032 0.0527885 -0.0484644 -0.0071254 0.0171936 -0.0111179 -0.0103524 -0.0914315 0.0147144 0.0587261 0.0268392 0.0694852 -0.0280184 -0.0206162 -0.0102216 0.0457254 0.0316899 -0.0374866 0.079985 -0.0544586 -0.0464014 0.0148904 0.00746952
internal_weight=245565 153872 91693.3 102925 50947 20431.9 30515.1 18858.4 14167.7 9447.9 32667.4 72834.9 70257.8 13498 29409.3 21466.7 9410.46 9200.63 12205.6 6264.15 30147.9 9490.44 9048.37 8657.67 5498.4 9040.24 40109.9 12899.9 4840.37 1755.41 11391.5 19918.9 38354.5 7092.33 5867.63 2398.1 8566.79 3345.42 6994.56 2053.81 17791 3702.23 2918.74 407.668 2766.12 2763.29 60629.3 573.199 7759.03 6461.4 30595.4 2637.98 3160.91 1776.53 5488.06 7903.78 2035.28 24852.2 5425.92 2835.4 4377.45 2674.3
internal_count=8387917 1298589 7089328 382309 916280 509600 406680 913190 290806 571663 209026 6176138 173283 287195 198753 242687 341527 339437 818036 218794 48010 81784 163993 190743 179274 563960 125273 119818 96452 10120 112508 116969 115153 63104 111593 18680 122869 156952 102608 61385 95802 160163 61842 7703 97256 58561 5358102 4994 28614 92953 86539 115216 72782 35456 32205 73465 79266 33329 291297 133453 80899 56189
is_linear=0
shrinkage=0.05


Tree=2
num_leaves=63
num_cat=0
split_feature=7 7 7 7 7 8 20 6 5 8 7 20 20 12 20 12 4 12 7 4 20 12 20 0 5 7 8 7 17 0 4 13 4 13 6 16 7 13 7 13 0 8 8 16 12 1 13 7 12 19 1 0 7 7 6 19 20 6 13 2 1 6
split_gain=312356 25035.3 9961.02 3194.72 3151.4 1587.97 1443.24 932.163 875.273 791.974 780.621 588.335 572.734 566.799 520.115 508.023 464.174 464.114 429.885 387.476 359.177 354.914 341.124 335.882 323.975 321.681 286.175 244.229 230.193 227.858 227.113 217.099 216.03 213.277 197.895 195.669 185.434 182.508 178.545 165.717 160.242 158.781 158.162 157.139 156.065 155.438 151.675 149.733 144.022 161.006 140.12 139.954 134.195 133.541 128.868 128.664 127.096 126.97 159.508 126.35 166.173 144.385
threshold=2505.0000000000005 13874.500000000002 744.50000000000011 29410.500000000004 7022.5000000000009 0.48370410501956945 0.35716329514980322 3.7299919128417973 1.0000000180025095e-35 0.48093944787979132 287.00000000000006 0.41131731867790228 0.55524858832359325 1.0500000119209292 0.32495546340942388 0.75000000000000011 1.0000000180025095e-35 1.2500000000000002 61754.000000000007 1.0000000180025095e-35 0.45451986789703375 1.1500000357627871 0.33106893301010137 0.43193821609020239 1.0000000180025095e-35 16817.000000000004 0.45003725588321691 1652.5000000000002 2.5000000000000004 0.43765906989574438 1.0000000180025095e-35 0.97625938057899486 1.0000000180025095e-35 0.86773085594177257 3.1959002017974858 0.10263158008456232 1407.5000000000002 0.93533506989479076 1126.5000000000002 0.97047120332717907 0.37337417900562292 0.46400769054889685 0.53871682286262523 0.36931818723678594 0.35000000894069677 0.21111111342906955 0.93257662653923046 4282.5000000000009 1.5500000119209292 0.30151376128196722 0.29285715520381933 0.38418701291084295 9280.0000000000018 3371.5000000000005 3.9667345285415654 0.20349378883838656 0.45451986789703375 3.4558711051940922 0.99461877346038829 0.15268065780401233 0.23611111193895343 4.199519395828248
decision_type=2 2 2 2 2 2 2 2 2 2 2 2 2 2 2 2 2 2 2 2 2 2 2 2 2 2 2 2 2 2 2 2 2 2 2 2 2 2 2 2 2 2 2 2 2 2 2 2 2 2 2 2 2 2 2 2 2 2 2 2 2 2
left_child=2 4 10 11 6 8 9 13 21 17 30 25 18 24 27 19 41 31 40 33 38 36 52 53 37 26 -3 -7 54 35 -1 -2 39 -8 -15 -27 -4 -6 -16 -24 -5 -12 -40 -35 -13 -20 -38 -25 49 -10 -46 -37 -9 -11 56 -41 -17 58 -52 61 -61 -42
right_child=1 3 5 12 7 14 15 22 48 23 16 44 -14 34 20 28 -18 -19 45 -21 -22 -23 32 47 -26 29 -28 -29 -30 -31 -32 -33 -34 43 -36 51 46 -39 42 55 59 -43 -44 -45 50 -47 -48 -49 -50 -51 57 -53 -54 -55 -56 -57 -58 -59 -60 60 -62 -63
leaf_value=-0.086245830823038841 -0.0072021802286389314 0.019272196348325041 -0.061172357419854863 0.051789560442644281 0.030162906626985109 -0.051732141160097084 0.039341676038849756 0.013005121909641346 -0.040966758382880969 -0.033273129242504744 -0.077987104266941346 0.065209616945688206 0.077682834095207487 -0.023103148379035821 -0.035365190590977008 -0.0018503448708393428 0.015824499720419473 -0.04582214674741316 0.063243429599800491 0.054514296137391796 0.030414012531007201 -0.072126104115582554 0.04591652232613766 -0.00025188758576074921 0.057250960431274027 0.0433632959320292 0.041139367360883881 -0.023223879623687087 -0.021587938794089614 0.050919434857233506 -0.02210822513699465 -0.031510698071569039 0.069069868224540518 0.013059602529377557 0.0061171682953007943 0.0011942692208446494 -0.028084412553014439 0.01557505211726665 -0.030590146946330471 0.013523737826324978 0.060846078278893767 -0.065551824119212371 -0.0065770236498538456 0.052429306742004536 -0.021990735711881509 0.077223810680988089 -0.052911349816660375 0.016246153141603308 -0.07374895628074267 0.042861157519940102 0.045468895733146969 0.039558761677571323 0.031302058921279262 -0.0063799166311036748 0.035569096773436518 0.036399349536861705 0.049978945588148554 0.05694649140301955 -0.012278282492356248 0.0046562815717432551 0.080302720471284006 0.071622348792065818
leaf_weight=59137.85944565665 3428.9550368032069 1979.5272180491593 2280.051263759844 3801.1328593085054 3306.6351437750272 2010.4466440551332 1120.0571029827697 1573.1706420506816 71.514108723262325 595.60753549030051 5956.6517843839829 4513.4960695994087 8899.7270152624696 812.14345134585164 1252.7178740774398 1390.3439328267123 150.45169960707426 1481.4340727247763 2774.7026931960136 916.19999387999997 395.34115621633828 3354.5404057461419 4665.9453147454187 2407.3106789062149 648.17441606451757 6662.1190875337925 6127.6836283826269 1199.5069844966638 914.23058851785026 15248.504413506715 138.34774390456732 1254.5613605706603 666.57463050633669 4693.3168263133848 2022.2022482846514 507.63379765534773 1146.4937575772638 6098.3353086804855 951.695663316641 760.24945302540436 30243.454477554653 4511.0393103499664 2453.5653120267671 267.92381744668819 62.200555386953056 7014.1608556238934 1327.5014958451502 3208.0220527931815 40.082211869303137 287.78505980456248 757.51409689243883 447.08777371328324 2760.7303065920714 2051.7210142844124 367.07994533167221 3210.3740059400443 129.28162848809734 4457.8635649038479 141.99604993918911 76.368192267604172 1470.4612225489691 3464.3753239084035
leaf_count=5351175 108796 28623 157844 14711 43548 111948 14700 23220 2421 20461 495071 11463 10122 36410 58432 37366 3626 89298 5236 4977 6511 272663 30054 58000 3996 43339 40461 45990 31593 67002 6945 50004 1853 82446 43508 8862 57214 96727 41698 9597 75193 319321 76948 1925 332 8185 76239 51634 2523 2759 4004 3051 27670 51691 4175 27628 1384 15382 2941 625 1953 4443
internal_value=-4.16854e-05 0.0437635 -0.0755562 0.058444 0.0152271 -0.0409514 0.00218994 0.0271346 -0.0561139 -0.00786731 -0.0838597 0.0477534 0.0660171 0.0174926 -0.0253399 0.0169986 -0.0713748 -0.0214293 0.0638916 0.0242016 -0.0153421 -0.0596731 0.0362466 0.00225159 0.0230603 0.0443576 0.0358001 -0.0410791 -0.00099642 0.0473918 -0.0860961 -0.0137136 0.0416441 0.0196348 -0.00225552 0.0403296 -0.050886 0.0207039 -0.0192256 0.0395274 0.0615432 -0.0726281 -0.0132882 0.0151857 0.058342 0.073261 -0.0414061 0.00917339 0.0161477 0.0261762 0.0526225 0.01916 0.0246604 -0.0124305 0.0089815 0.0320194 0.00255901 0.0534888 0.036353 0.0625948 0.076568 0.0619536
internal_weight=236066 149401 86665.6 98650 50750.6 16771.2 24226 26524.5 8507.97 14427.6 69894.3 40905.6 57744.4 12887.5 8263.27 9798.43 10618.1 6164.95 48844.7 6997.5 5053.32 8108.59 13637 8262.66 10053.1 30972.6 8107.21 3209.95 2800.94 22865.3 59276.2 4683.52 9303.14 6081.3 2834.35 7616.84 4754.05 9404.97 4657.98 8636.57 39055.8 10467.7 3405.26 4961.24 9933.07 9788.86 2474 5615.33 399.381 359.299 5419.57 954.722 4333.9 2647.33 1886.71 3970.62 1519.63 5357.37 899.51 35254.7 1546.83 33707.8
internal_count=8387917 1298589 7089328 345928 952661 913190 608450 344211 571663 429884 6176138 225460 120468 224189 341527 178566 818018 248098 110346 104048 183589 563960 120022 181786 144271 191338 69084 157938 74518 122254 5358120 158800 69132 99071 79918 55252 291297 140275 177078 67279 96925 814392 118646 84371 34122 13421 133453 109634 7703 5180 22659 11913 50890 72152 42925 37225 38750 22327 6945 82214 2578 79636
is_linear=0
shrinkage=0.05


Tree=3
num_leaves=63
num_cat=0
split_feature=7 7 7 7 8 8 5 5 7 7 3 7 7 3 0 0 4 0 0 6 0 7 0 7 3 4 8 4 8 7 10 8 3 8 10 3 7 16 8 15 8 9 10 7 8 0 10 19 10 7 19 0 19 10 6 19 10 14 2 19 15 16
split_gain=262158 20988 8838.53 4100.2 1664.98 1293.28 1023.01 737.364 736.742 722.596 698.696 683.014 662.368 406.219 397.653 391.544 374.93 350.884 291.793 287.08 273.156 270.73 264.934 254.707 240.652 239.782 232.513 192.526 189.117 188.014 180.367 175.168 174.598 168.396 163.419 163.251 162.132 153.561 148.628 147.611 138.489 137.669 133.007 124.799 142.532 119.392 119.386 116.557 116.089 115.474 115.236 114.456 112.726 109.268 107.262 105.018 102.961 101.831 106.116 101.26 100.405 96.7689
threshold=2505.0000000000005 11113.500000000002 744.50000000000011 29410.500000000004 0.48370410501956945 0.48370410501956945 1.0000000180025095e-35 1.0000000180025095e-35 4410.5000000000009 287.00000000000006 0.072973996400833144 5559.0000000000009 49905.500000000007 0.084835831075906767 0.43939571082592016 0.37883515655994421 1.0000000180025095e-35 0.44883650541305548 0.43383347988128668 3.9829809665679936 0.41127720475196844 16817.000000000004 0.44787788391113287 1115.5000000000002 0.069178212434053435 1.0000000180025095e-35 0.57435104250907909 1.0000000180025095e-35 0.55567607283592235 17559.000000000004 200.50000000000003 0.46400769054889685 0.038432341068983085 0.62519443035125744 3283.5000000000005 1.0000000180025095e-35 1358.5000000000002 0.12132352963089944 0.37242087721824652 0.99762386083602916 0.53871682286262523 0.73270073533058178 4342.0000000000009 8202.5000000000018 0.57759502530097973 0.42242333292961126 4098.0000000000009 0.32308603823184973 3640.0000000000005 14573.500000000002 0.20628029108047488 0.31758143007755285 0.36996778845787054 265.00000000000006 4.0161831378936776 0.30833867192268377 2966.5000000000005 151.50000000000003 0.1234756112098694 0.33724582195281988 0.9711948335170747 0.074175827205181136
decision_type=2 2 2 2 2 2 2 2 2 2 2 2 2 2 2 2 2 2 2 2 2 2 2 2 2 2 2 2 2 2 2 2 2 2 2 2 2 2 2 2 2 2 2 2 2 2 2 2 2 2 2 2 2 2 2 2 2 2 2 2 2 2
left_child=2 4 9 10 6 7 11 36 19 27 15 18 24 17 51 29 31 -7 -2 35 -14 26 38 -19 52 39 48 -1 -27 55 -22 -11 59 -12 -20 42 -4 -31 46 43 -25 -28 -6 -16 -45 -38 -13 56 49 -17 -26 -10 -5 -49 -43 -3 -23 58 -53 -8 -29 -9
right_child=1 3 5 12 8 13 32 61 14 16 33 22 20 -15 25 21 -18 23 34 -21 30 47 -24 40 50 28 41 60 -30 37 -32 -33 -34 -35 -36 -37 45 -39 -40 -41 -42 54 -44 44 -46 -47 -48 53 -50 -51 -52 57 -54 -55 -56 -57 -58 -59 -60 -61 -62 -63
leaf_value=-0.081847130259618678 -0.037668040351352738 0.01664152033949878 -0.063045949970786871 0.05423026708584238 -0.011695607092808443 -0.042510686955608459 -0.00966173756949734 -0.042509973146620916 -0.022518194927469821 -0.074134248431850278 0.049867733143470337 -0.027529306387020731 0.055262284840393208 0.042222382032121225 0.018794865445128438 0.019456891661576547 0.01053486628798017 -0.037224923421573242 -0.020425614838253694 0.02056874659128639 0.071369358331528493 0.04435029916016555 0.011594207836817035 -0.028033731273205305 0.037303549420667145 0.0079768791411191052 0.050804801500202806 -0.046409715118788691 0.061522070820762512 0.038490351916306856 0.062343603935623583 -0.060591866527740137 0.050524401562905157 0.06696141167353438 0.0009055938249819906 0.035120464575844466 -0.06246813889311012 0.0024758850624768364 0.0022439282887456269 0.062801566592134983 -0.0070382703761991006 0.032360366597628115 0.0072841830996710367 0.018483114438655284 0.034287691747854517 -0.043028164867670964 0.027536333712312424 -0.014420187463621396 0.052026663011716934 0.033322613991247772 0.073025108626712229 -0.0019904079848486965 0.020072198012485082 0.034264161370988089 0.045599374614223837 -0.023480402444580484 0.063682018333611853 0.016700692062196296 0.040827686394134713 0.051986143944954058 0.053856609129990067 0.027188543403291434
leaf_weight=56186.953202955367 1879.8979258544277 1653.403303662315 3696.084148456488 24628.639944381081 3317.071424066904 2187.881904626789 235.82743805763312 59.096089007332921 273.70682993694209 5506.5330454885261 3229.2046913690865 1089.1659325420624 4778.4241728861816 227.43347566324519 7942.4754593103426 2971.9917105968343 153.34566524089314 1399.9264910951024 2996.8719160305336 1529.8115410936298 16384.676605895162 20883.734478645958 3414.4211991212796 1062.0145481263171 248.99644163623452 212.46614017267711 2471.9637275114655 108.38971608132124 736.63717975141481 2210.9209082459565 8359.0708656017669 4216.0841563218564 870.45297404786106 2601.5370020754635 1281.9322591235396 249.41895206924528 1095.6001809058362 341.7311771302484 1220.0080037734006 235.91833001677878 3015.7998488775338 4361.7707240153104 1278.9773563498748 2292.4666193604935 3776.7185868888628 2829.7582544657635 108.20986896241084 128.67339340411127 479.53175907628611 3034.870976459235 2420.3951790453866 1701.9891329794191 243.926060333848 1105.0501461874228 2356.5079848135356 180.94271537591703 712.25832174438983 2839.188157204655 158.1448415145278 92.830983932130039 32.440972431213595 316.57987975538708
leaf_count=5351175 96560 24149 298559 65575 89050 113073 7134 3116 8049 495071 11558 49222 14681 3112 117116 46165 3626 74765 116319 23521 19263 95116 75893 49201 771 3616 13243 6404 1819 16663 14066 319321 6885 4734 43975 3197 82015 7106 30862 1081 101376 32386 31961 30732 31081 183386 2760 3485 4740 28405 3055 37118 3057 10992 12256 6206 2037 48334 1645 950 541 4587
internal_value=-3.28696e-05 0.0402703 -0.0714759 0.0519077 0.0092873 -0.0379885 -0.00523266 -0.0521597 0.016502 -0.0795135 0.0412549 -0.00963623 0.0610036 -0.0236304 0.0211851 0.0390474 -0.0670383 -0.0255842 -0.0212487 0.00168575 0.0662067 0.0406598 0.00262712 -0.0188235 0.0554264 0.0252012 0.0356005 -0.0817008 0.0495355 0.0248944 0.0683202 -0.0682618 0.0388008 0.0574945 -0.0140348 -0.00427599 -0.0555305 0.033669 -0.0100384 0.0235802 -0.0125063 0.0407162 -0.00641396 0.0229198 0.028318 -0.048454 -0.0225529 0.044134 0.0283523 0.0264623 0.0696931 0.00891249 0.0538953 0.0291865 0.0370041 0.0126838 0.0449879 0.0107431 0.0016499 0.00775097 -0.0233129 0.0162245
internal_weight=227617 145523 82093.9 105788 39734.6 15890.2 13189.6 7997.12 26545 66203.7 48724.1 11990.5 57064.1 7893.06 20169.7 42893.4 9875.96 7665.62 6158.7 6375.28 29522.2 38506.4 5831.81 5477.74 27542 15196.7 15676.6 56327.8 949.103 4387 24743.7 9722.62 1199.11 5830.74 4278.8 4845.47 7621.44 2552.65 2417.38 14247.6 4077.81 9190.24 4596.05 14011.7 6069.19 3925.36 1197.38 22829.7 6486.39 6006.86 2669.39 4973.03 24872.6 1233.72 6718.28 1834.35 21596 4699.32 1860.13 328.658 140.831 375.676
internal_count=8387917 1298589 7089328 439709 858880 913190 430560 571663 428320 6176138 319241 415591 120468 341527 280591 302949 818018 338415 256854 147729 48010 248825 158737 225342 72458 185445 137195 5358120 5435 54124 33329 814392 14969 16292 160294 124208 563960 23769 82844 180010 150577 57885 121011 178929 61813 265401 51982 111630 79310 74570 3826 95146 68632 14477 44642 30355 97153 87097 38763 8084 6945 7703
is_linear=0
shrinkage=0.05


Tree=4
num_leaves=63
num_cat=0
split_feature=7 7 7 7 7 12 8 20 8 20 7 5 20 16 8 12 8 4 12 12 4 3 20 8 20 20 8 17 13 7 8 8 4 7 20 4 8 9 9 13 17 12 13 4 13 13 2 7 7 13 12 14 7 3 14 14 19 12 9 20 7 12
split_gain=225089 18205.7 7908.31 2628.7 2276.87 1093.16 1036.25 766.167 716.174 710.972 689.143 582.776 551.563 428.417 366.263 364.177 335.655 331.194 322.064 307.535 307.506 300.166 255.248 258.429 250.511 234.253 208.652 193.636 188.937 177.952 176.355 173.671 168.507 161.342 160.94 155.625 154.006 157.694 151.558 141.861 135.701 134.517 134.923 127.386 126.635 124.743 124.173 123.235 118.127 109.541 109.536 108.243 104.524 99.9532 98.727 96.1403 95.3653 95.3612 94.1775 93.6505 90.1673 113.936
threshold=2505.0000000000005 13874.500000000002 744.50000000000011 29410.500000000004 6797.0000000000009 1.0500000119209292 0.48370410501956945 0.35716329514980322 0.75894746184349071 0.39191992580890661 287.00000000000006 1.0000000180025095e-35 0.45451986789703375 0.18465909361839297 0.53434541821479808 0.65000000596046459 0.62304678559303295 1.0000000180025095e-35 0.84999999403953563 1.1500000357627871 1.0000000180025095e-35 0.076982256025075926 0.33664910495281225 0.51952305436134349 0.32495546340942388 0.27182014286518102 0.37781868875026708 2.5000000000000004 0.96825540065765392 4627.0000000000009 0.46400769054889685 0.62987887859344494 1.0000000180025095e-35 1652.5000000000002 0.437786415219307 1.0000000180025095e-35 0.42870013415813452 0.61729866266250621 0.68259483575820934 0.88916522264480602 1.5000000000000002 0.84999999403953563 0.9597841501235963 1.0000000180025095e-35 0.77750143408775341 0.97625938057899486 0.14142857491970065 8202.5000000000018 1318.5000000000002 0.93257662653923046 1.5500000119209292 6.5000000000000009 61754.000000000007 0.798557609319687 16.500000000000004 288.50000000000006 0.28378798067569738 0.25000000745058065 0.61535677313804638 0.55524858832359325 61754.000000000007 1.5500000119209292
decision_type=2 2 2 2 2 2 2 2 2 2 2 2 2 2 2 2 2 2 2 2 2 2 2 2 2 2 2 2 2 2 2 2 2 2 2 2 2 2 2 2 2 2 2 2 2 2 2 2 2 2 2 2 2 2 2 2 2 2 2 2 2 2
left_child=2 4 10 12 5 9 11 14 13 16 32 19 22 25 18 35 29 24 -6 48 30 28 23 -3 33 -5 34 -17 43 45 -12 -14 -1 -8 -7 -9 37 -27 51 -31 58 42 53 -11 -28 -2 52 -16 -4 -50 56 -15 -38 -26 -30 -42 -13 -48 -24 -34 61 -10
right_child=1 3 6 8 7 26 17 15 60 21 20 50 31 38 47 27 -18 -19 -20 -21 -22 -23 40 -25 41 36 44 -29 54 39 -32 -33 59 -35 -36 -37 46 -39 -40 -41 55 -43 -44 -45 -46 -47 57 -49 49 -51 -52 -53 -54 -55 -56 -57 -58 -59 -60 -61 -62 -63
leaf_value=-0.078230712619667672 -0.0078424045003619557 0.022512102745260335 -0.052584748434013652 0.030634961300825658 0.013859520063857843 -0.039183196936680376 -0.045058615411986781 0.035526087718802106 0.063640766525977138 0.019023581093399182 -0.070645936395185183 -0.058691283443674247 0.046539730719568483 0.056519486641048701 0.0095308256519408777 0.027396795499627875 0.012263138059202055 0.040392876787043362 -0.010292618981443341 -0.063923604930035863 0.007046845442529562 0.048252599024297321 0.06485541999468597 0.037024353379555716 -0.009009660946001365 0.0063023143253340174 0.026087031167129723 0.00451575708737279 -0.02661310288767494 0.021795517477418813 -0.05671510097350374 0.064543203189372719 -0.044783762713543153 -0.020767215760843651 0.026007782524546483 0.056424025458408571 0.050581809891821039 0.04593390089760406 0.067491403132957276 -0.0022728608057820932 0.037567012593687915 -0.030828010591452872 -0.039115303802314427 0.051238996895305235 -0.016248527983600648 -0.027485874458168632 0.073256453380551576 0.024180638140734872 -0.024933111096896103 -0.046446954285955133 -0.068579002015816418 0.014691382680420065 0.06078054703907141 0.07359220578199635 0.0080453344722114101 0.060321675725535942 0.031700267558555574 0.04896001015112425 0.045272637195345605 0.05470099659813759 0.069200614827330406 0.043359621435180712
leaf_weight=53570.753415111554 3642.5056051865686 4438.4248712109402 1856.1978594720713 1377.7929812944494 3702.8947349477094 1650.075646800804 1825.2997621770191 6237.4499017989729 8376.5334390662611 2194.0061947130598 5208.1541309052554 32.439614835428074 2919.7776731716003 477.1963591389358 1825.5133090175223 2899.0267039316241 3801.0571680974681 201.71454400429502 2200.584887501609 3077.6449350008625 152.36225473741069 931.95867815357633 691.33580086892471 9933.2163162895013 2806.0753342903918 357.27107637887821 190.16027644905262 1357.6762668809388 292.60623483522795 742.12380959757138 4029.4868412921496 2475.041576360818 106.65313800983131 1092.8328314122627 100.43615109589882 1039.3077933532186 25429.053003394976 843.81564027070999 5826.3482038490474 3497.6717999493703 12230.550364286639 1290.1975394869805 395.073005278653 356.75047605205327 2483.8735514282598 1038.6592124807648 1202.5520130153745 6719.6648527539801 1178.2983064136788 1188.4280497168074 36.668274582596496 228.84042375860736 2787.6613211613148 37.107560152187943 690.025881560985 482.51303348038346 290.32737802248448 608.06259449757636 5485.4163038013503 30.39808368566446 8143.4240062925965 754.90164189785719
leaf_count=5351175 116036 54074 146013 6151 67477 98179 111889 54439 13809 36831 495071 2090 12516 1274 30044 33150 68988 2090 72143 272663 3626 6360 1640 58289 103535 4651 3969 27163 8712 13451 319321 4542 6528 45989 2006 2825 63529 2751 8779 92128 73239 59208 18707 1885 82872 43721 1299 75424 64789 80495 2523 1268 4428 109 14858 1366 3090 1083 19794 417 9424 2022
internal_value=-2.69776e-05 0.0373755 -0.0680826 0.0500133 0.0121313 0.000140346 -0.0358437 0.0221054 0.0568957 0.00584585 -0.0759042 -0.0488426 0.0399694 0.0531529 0.0144342 0.0317155 -0.000178928 -0.0228249 0.00485655 -0.0519027 -0.0634072 0.0230108 0.0375641 0.0325425 -0.0245373 0.0508114 -0.022023 0.0200989 0.0163531 -0.00548026 -0.0645693 0.0547994 -0.0780891 -0.0359616 -0.0354428 0.0385108 0.0517016 0.0341452 0.0648402 0.00194001 0.0413846 -0.0171755 -0.0117361 0.0235292 -0.0132379 -0.0122009 0.0524039 0.021051 -0.043142 -0.0357361 0.0133122 0.0429622 0.0515894 -0.00793159 -0.00227519 0.0384306 0.0226155 0.0650969 0.0474644 -0.022718 0.0653754 0.0619641
internal_weight=221070 142664 78406.1 95069.7 47594 21611.9 15308.3 25982.1 56413.5 17187.4 63097.8 7660 38656.3 39138.6 14448.7 11533.5 12722 7648.3 5903.48 7300.57 9390 4465.35 33261.5 14371.6 7446.59 32606.2 4424.55 4256.7 3533.39 8920.96 9237.64 5394.82 53707.8 2918.13 1750.51 7276.76 31228.4 1201.09 6532.38 4239.8 18889.8 4528.45 3238.26 2550.76 2674.03 4681.16 30027.3 8545.18 4222.92 2366.73 359.435 706.037 28216.7 2843.18 982.632 12713.1 322.767 1810.61 6176.75 137.051 17274.9 9131.44
internal_count=8387917 1298589 7089328 345928 952661 589996 913190 362665 120468 402970 6176138 571663 225460 95213 245088 117577 334324 341527 139620 563960 818018 68646 208402 112363 339437 83892 187026 60313 62286 265336 814392 17058 5358120 157878 100185 57264 77741 7402 11321 105579 96039 181559 122351 38716 86841 159757 70339 105468 291297 145284 7703 2542 67957 103644 23570 74605 5180 2382 21434 6945 25255 15831
is_linear=0
shrinkage=0.05


Tree=5
num_leaves=63
num_cat=0
split_feature=7 7 7 7 12 12 4 7 6 7 7 3 3 6 3 12 7 4 6 6 6 0 0 0 0 6 0 0 0 0 10 6 7 7 12 10 10 13 6 4 13 6 3 13 6 6 5 10 12 7 7 0 10 12 7 19 12 0 10 7 7 19
split_gain=197552 17050.6 6380.82 3438.51 1407.01 843.197 690.481 678.113 668.146 641.109 639.84 607.112 556.322 444.283 428.94 372.903 398.327 295.686 284.009 270.826 269.379 265.85 231.158 222.293 193.43 180.294 177.484 172.86 163.876 155.14 168.541 147.588 143.151 142.725 134.577 129.745 127.527 120.394 119.891 117.516 113.096 109.104 135.975 113.344 108.868 108.452 107.164 105.128 103.094 98.6868 96.2378 92.6023 89.8875 88.8229 88.4498 87.3521 84.7422 84.6065 84.0606 83.6449 81.408 92.3954
threshold=2327.5000000000005 11113.500000000002 744.50000000000011 29410.500000000004 0.75000000000000011 0.75000000000000011 1.0000000180025095e-35 4410.5000000000009 4.126603603363038 5559.0000000000009 274.50000000000006 0.076982256025075926 1.0000000180025095e-35 3.4558711051940922 0.063430374488234534 0.45000000298023229 20023.500000000004 1.0000000180025095e-35 3.5000387430191044 3.9590799808502202 3.5749331712722783 0.42996564507484442 0.47439445555210119 0.46115717291831976 0.43082660436630255 4.0001444816589364 0.44787788391113287 0.4527446329593659 0.38418701291084295 0.52613395452499401 32.500000000000007 3.5530858039855961 1278.5000000000002 39142.500000000007 0.75000000000000011 3691.5000000000005 4300.5000000000009 0.8934762477874757 3.7844923734664921 1.0000000180025095e-35 0.95303127169609081 3.9667345285415654 1.0000000180025095e-35 0.89058214426040661 4.0001444816589364 3.8925651311874394 1.0000000180025095e-35 5616.0000000000009 0.94999998807907116 3160.0000000000005 7243.0000000000009 0.45552627742290502 4098.0000000000009 1.4499999880790713 15545.000000000002 0.24745360761880877 1.1500000357627871 0.64765143394470226 2440.0000000000005 13874.500000000002 8962.0000000000018 0.21568543463945392
decision_type=2 2 2 2 2 2 2 2 2 2 2 2 2 2 2 2 2 2 2 2 2 2 2 2 2 2 2 2 2 2 2 2 2 2 2 2 2 2 2 2 2 2 2 2 2 2 2 2 2 2 2 2 2 2 2 2 2 2 2 2 2 2
left_child=2 4 10 11 6 12 9 23 14 21 39 15 19 26 22 25 18 31 48 32 53 -2 -5 47 -11 35 -9 -18 -15 30 -10 -12 -4 34 -24 54 45 -20 -13 -1 -34 42 43 49 50 57 52 56 -17 -23 -30 -39 -28 -7 -3 59 -6 60 -36 -53 -26 -62
right_child=1 3 5 8 7 20 -8 13 29 24 17 38 -14 28 -16 16 27 -19 37 -21 -22 41 33 -25 36 -27 46 -29 44 -31 -32 -33 40 -35 58 -37 -38 51 -40 -41 -42 -43 -44 -45 -46 -47 -48 -49 -50 -51 -52 55 -54 -55 -56 -57 -58 -59 -60 -61 61 -63
leaf_value=-0.075129026647531641 -0.013899958889106648 0.028296864611669654 -0.039591341830201437 0.043201055125330623 -0.029502125196019458 -0.048658295915342105 0.04691178144114129 -0.027753514940326324 0.065830803031547647 0.0079257557313085394 -0.067083606396512729 0.042579439924352772 0.0298897425934978 -0.015369507026464125 0.063362193779686202 0.020040772423228746 0.028531188736737635 0.007475939392977588 0.05218670848776024 0.00049627970951199979 -0.033895895266498041 -0.004043977277474034 0.05172137782011195 -0.013653381009749109 0.011922793494197479 0.047061501063229497 -0.012330802009349294 0.042531375893113614 0.0005635011745288239 0.067642164773789093 0.053333426093357741 -0.054059019751341711 -0.019404944355844885 0.05619193956351768 0.040163631150743451 0.056498350243876339 0.041744811796502843 0.019670656765750905 0.057704185772363907 -0.027144342643761938 -0.041117031160179091 0.018217732761660839 0.026970353864789454 -0.004272532620468332 0.028439551138163949 0.030442342508322395 0.029666254838298284 -0.0060448981828146835 0.0025175429041971488 0.01861806288203317 0.015427389828230248 0.014814623391214438 0.020722320892704878 -0.062763495611761685 0.037427856613690455 0.036836309325017885 -0.053628708162989147 0.04058192155223074 -0.0067383530322738076 0.030075252452548398 -0.033502192215073001 0.023762420480621514
leaf_weight=51189.434002907714 2121.0538149715867 3805.6817454732955 2639.910536682728 14414.037480726838 700.77719120279653 2361.4104436424386 1460.9643682425376 1310.4050011708168 4387.5767976660281 3359.1871420081006 5444.961087337666 2260.5616169520654 453.46529243176337 599.88683475949802 5211.8167433869094 1685.4802315148991 3523.686580714304 156.32055071461946 490.20161428768188 778.944845895865 2180.7641298430972 757.91058643488213 5645.6759904935025 2548.5584899092792 4342.4598448917968 4904.8114486858249 1588.9891155358637 5890.4965711794794 1908.7893910882995 6910.780975420028 7004.8747760783881 3621.7353281943942 2732.3694465368753 8899.1019711336121 2904.372748230584 719.09580554207787 737.37899859494064 3137.9403890174581 3116.7033653846011 127.91324256261578 768.44502843008377 1492.404682765482 549.20611066953279 3725.6934340400621 864.12237426708452 2049.3782730405219 209.97672956809402 235.74494681297801 1671.9742278029444 1312.0081893756287 2535.5191629003966 1284.381635883823 236.27589025208727 2116.4281397089944 8750.0341507154517 2809.5290487641469 757.2301118010655 379.02572403941303 98.781384480185807 2984.1180779947899 72.078100730665028 3098.9242751514539
leaf_count=5331320 74348 37470 173031 46802 31229 179488 7482 64647 5354 68805 539102 9094 8420 17609 7206 22136 29071 3655 2242 23271 114137 21556 13165 94425 69898 17814 57181 25950 44787 7941 13911 296184 129335 16187 9270 2938 6982 31724 6363 6865 48129 21981 7505 108388 9311 17623 3513 8991 35236 25337 37905 14470 6484 196748 51056 16283 50938 3194 619 17113 1610 36204
internal_value=6.52412e-05 0.0347796 -0.065789 0.0454801 0.00662004 -0.035409 0.013539 -0.00643098 0.0539119 0.0115072 -0.0728303 0.0355348 -0.0237612 0.00115744 0.0500616 0.0334939 0.0293311 -0.0607053 0.0240026 -0.0272771 -0.0483068 0.00180371 0.0478927 -0.022984 0.0183904 0.0388699 -0.0134014 0.0372912 0.00940155 0.0617318 0.0581465 -0.0618809 -0.0308002 0.0517465 0.0471725 0.0358432 0.0216821 0.0279816 0.0513459 -0.0750094 -0.0241708 0.00605373 0.00319256 0.000939319 0.0122008 0.0201941 -0.00416074 -0.0370236 0.0113144 0.0103202 0.00904349 0.0268201 -0.00805216 -0.055325 0.0346602 0.0299898 -0.0420325 0.017533 0.0386209 0.0254834 0.0163703 0.0224608
internal_weight=216038 141466 74572.1 102512 38953.9 14031.7 25457.7 13496.3 55477 23996.7 60540.4 47034.7 7373.14 9253.96 37173.8 41657.4 23477.8 9223.02 14063.6 6919.67 6658.6 9958.28 31962 4242.31 14038.4 18179.6 3345.65 9414.18 5908.32 18303.2 11392.5 9066.7 6140.73 17547.9 8648.83 13274.8 10679.2 10706.2 5377.26 51317.3 3500.81 7837.22 6344.82 5795.61 5308.43 9941.87 2035.24 1693.75 3357.45 2069.92 4444.31 10216 1825.27 4477.84 12555.7 7078.03 1458.01 7892.49 3003.15 4268.5 7513.46 3171
internal_count=8387033 1337348 7049685 439415 897933 872559 470913 427020 120455 463431 6177126 318960 382186 241437 93249 303503 194225 838941 139204 373766 490373 259115 86043 185583 204316 109278 131825 55021 109612 27206 19265 835286 350495 39241 23054 91464 135511 81832 15457 5338185 177464 184767 162786 155281 92003 128529 67178 91158 57372 46893 82692 79590 63665 376236 88526 47866 82167 110906 9889 31583 107712 37814
is_linear=0
shrinkage=0.05


Tree=6
num_leaves=63
num_cat=0
split_feature=7 7 7 7 8 5 12 7 7 7 3 12 3 7 5 7 8 8 3 4 0 8 0 12 0 0 0 0 8 10 0 2 7 10 12 8 9 19 14 0 0 10 12 12 7 17 0 12 9 1 10 1 4 16 9 16 7 0 2 1 7 9
split_gain=175231 15504.4 5827.36 3349.16 1266.89 790.985 726.475 651.582 610.078 577.754 574.515 564.278 469.119 388.053 381.692 365.678 355.204 334.558 307.744 257.304 219.154 217.672 198.713 178.917 172.728 171.895 171.124 168.795 168.683 166.742 190.505 166.674 152.87 149.393 147.153 146.491 135.975 134.923 127.912 170.414 126.221 120.445 129.586 119.888 135.66 119.292 118.078 116.402 116.117 114.073 108.969 105.269 102.745 100.904 94.6343 93.9459 93.8339 108.281 93.1201 92.648 91.039 89.747
threshold=2327.5000000000005 11113.500000000002 744.50000000000011 29410.500000000004 0.48370410501956945 1.0000000180025095e-35 0.75000000000000011 55801.500000000007 274.50000000000006 4410.5000000000009 0.14100980013608935 1.2500000000000002 1.0000000180025095e-35 5559.0000000000009 1.0000000180025095e-35 18510.000000000004 0.45722997188568121 0.42615553736686712 0.072973996400833144 1.0000000180025095e-35 0.38083994388580328 0.6726556420326234 0.6805778741836549 0.84999999403953563 0.43939571082592016 0.46115717291831976 0.48047818243503576 0.37883515655994421 0.47064210474491125 222.50000000000003 0.40624393522739416 0.047065338119864471 8660.0000000000018 746.50000000000011 0.94999998807907116 0.59672966599464428 0.67990183830261242 0.26171383261680609 155.50000000000003 0.46648997068405157 0.49297268688678747 7085.5000000000009 0.94999998807907116 1.1500000357627871 39142.500000000007 1.5000000000000002 0.42153139412403112 0.45000000298023229 0.66831442713737499 0.23611111193895343 17.000000000000004 0.29285715520381933 1.0000000180025095e-35 0.12132352963089944 0.61729866266250621 0.26136364042758947 1126.5000000000002 0.45741738379001623 0.075961541384458556 0.91666665673255932 21042.500000000004 0.65289825201034557
decision_type=2 2 2 2 2 2 2 2 2 2 2 2 2 2 2 2 2 2 2 2 2 2 2 2 2 2 2 2 2 2 2 2 2 2 2 2 2 2 2 2 2 2 2 2 2 2 2 2 2 2 2 2 2 2 2 2 2 2 2 2 2 2
left_child=2 4 8 10 5 11 12 14 52 25 15 13 21 33 22 16 23 -8 20 28 -11 40 36 54 -13 -6 31 -18 -10 30 45 60 51 -2 -31 -34 38 -12 39 61 -4 42 -27 46 -45 -9 50 -29 59 -49 -38 -22 -1 -7 -3 -14 -19 -58 -48 -16 -17 -5
right_child=1 3 6 7 9 53 17 29 19 18 37 24 55 -15 48 26 27 56 -20 -21 32 -23 -24 -25 -26 41 -28 47 -30 34 -32 -33 35 -35 -36 -37 43 -39 -40 -41 -42 -43 -44 44 -46 -47 58 49 -50 -51 -52 -53 -54 -55 -56 -57 57 -59 -60 -61 -62 -63
leaf_value=-0.072545863430614449 -0.030478818312307976 0.029545403913690701 -0.038082696467601339 -0.013096228408614161 -0.012527488622303665 0.0030187437769831778 -0.056428924608497612 0.059615510877864646 -0.065348383130910598 -0.0026169041143718846 0.055870749692521385 -0.045454152065132598 0.0047438815247620768 0.0058508883268712187 0.062441557654579996 0.020017585303192451 0.013057307928942464 -0.046697002387447895 0.041502591049909984 0.0053939615612832101 0.0059340746730380898 -0.0069560032125361663 -0.011171492031668912 0.0007442766856180287 -0.020189606983071047 0.0060195435406876392 0.041053111961676277 0.035629219576803137 -0.051319251289204317 0.046201371246418488 0.064233954830242232 0.047427379467009124 0.014751106101026538 -0.0097835104373031768 0.061432340773323962 0.030229411587533363 0.069488844320491266 0.037803630636419672 0.046061331058549815 0.038585401765874432 -0.023107698783670111 0.02813192975320758 -0.018447093941829626 0.031974887070439169 0.050301394141549251 0.038695651272575932 0.049782687442914697 0.017682478511428585 0.064917247041602441 0.030716908282142394 0.040011717343628614 0.016625882016208269 -0.027282435111222865 0.039025644217725419 0.010939701041340141 0.049843890787757916 -0.044821550431606134 -0.01934643794538432 0.063937247326038768 0.025848634375037045 0.032067366973443395 0.022917611789600157
leaf_weight=49148.91959294508 1171.2823061195086 1643.6159003768116 2815.5147168085678 251.58113588159904 2105.5244772514561 244.81710097636096 3582.1184554338979 1414.0155870337039 5009.6024537312333 1625.0823693403509 3091.8056425512768 1164.3152300849324 252.24634396948386 4290.522437588661 318.51391076855361 2188.1568457242101 1350.8028359180316 915.30517844745191 1156.5917077416088 156.20528157358058 3554.5873131810222 1177.1513554702397 156.14285157853737 1570.8872943641618 1614.7774561702972 3214.8026568427449 9766.0373655124567 8400.2938217325136 3743.9631398596975 4258.6108561879955 11448.143543839455 1395.4905897174031 2914.1158668445423 3412.9739769172156 2526.7312211515382 3215.2016745272558 336.72052071988583 1552.1018986320123 2903.4573922790587 2178.3623978644609 2813.0474660107866 493.48143100249581 650.73829926073086 2485.6077505741268 1700.7241595871747 1315.352875447832 13104.057866201736 2247.1307647186331 3497.8210764080286 6634.279205577448 4551.3919526934624 6533.9311218467774 125.69385729741771 948.02252621436492 1169.8848969761748 212.94866337720305 605.86505330802174 1338.9285583055753 1275.017294049263 378.55568131990731 5526.3692315849476 553.76476440764964
leaf_count=5331320 58396 17705 180050 3226 68711 7368 324883 1977 519798 39457 6367 78480 7420 99215 572 21034 18358 63147 8170 3655 65020 41333 1325 35320 76041 68807 40491 47948 315488 8711 13507 6828 41453 122498 3344 27910 458 6844 9866 6961 152383 7864 22201 7874 3810 4484 28572 20806 3971 46180 15673 98526 6865 7816 15897 1000 38269 64074 1688 2282 35182 2154
internal_value=6.71781e-05 0.0327478 -0.0633427 0.0430042 0.00565722 -0.00714387 -0.0340214 0.0513978 -0.0702533 0.0121154 0.0331463 -0.0111132 -0.0231887 -0.00495638 0.0470915 0.0312967 0.0270663 -0.0462475 0.0165086 -0.058213 0.0148884 -0.0265092 0.0450846 0.0142617 -0.0307743 -0.000796179 0.0364551 0.0300793 -0.059348 0.058319 0.0614039 0.031526 0.0166425 -0.0150712 0.0518731 0.0228704 0.0453839 0.0498323 0.0385901 0.0313198 -0.0305985 0.00487036 0.00190075 0.0470893 0.0394201 0.0495337 0.0487556 0.0314098 0.0612036 0.027419 0.0420423 0.0128587 -0.0724304 0.0316356 0.0218089 0.025389 -0.0334958 -0.0272827 0.0510378 0.0425691 0.0286496 0.0116673
internal_weight=211400 139502 71897.5 101191 38310.8 12846.7 13713.1 54654.6 58184.4 25464.1 46536.9 11653.9 7270.91 8874.78 33691.7 41892.9 23016.9 6442.22 18999.5 8909.77 17842.9 6805.71 29496.8 4384.39 2779.09 6464.55 18876.1 18632.5 8753.57 20962.9 14177.5 9110.02 16217.8 4584.26 6785.34 6129.32 29340.7 4643.91 5887.17 2983.71 5628.56 4359.02 3865.54 23453.5 4186.33 2729.37 19267.2 17281.7 4194.89 8881.41 4888.11 10088.5 49274.6 1192.84 2813.5 465.195 2860.1 1944.79 14379.1 697.07 7714.53 805.346
internal_count=8387033 1337348 7049685 439415 897933 449814 872559 120455 6177126 448119 318960 434630 382186 280109 88432 305749 202214 490373 280536 838941 272366 373766 81607 68922 154521 167583 103535 133292 835286 32023 19968 63044 232909 180894 12055 69363 80282 13211 22207 12341 332433 98872 91008 58075 11684 6461 46391 114934 6825 66986 16131 163546 5338185 15184 33602 8420 165490 102343 30260 2854 56216 5380
is_linear=0
shrinkage=0.05


Tree=7
num_leaves=63
num_cat=0
split_feature=7 7 7 7 7 20 20 7 20 8 7 20 5 8 8 20 8 12 8 12 7 12 8 7 6 20 7 12 20 0 20 17 7 17 12 20 6 19 17 0 20 10 20 20 19 2 14 0 19 15 14 8 0 10 13 7 6 6 0 15 10 20
split_gain=156700 13992.2 6037.37 2359.53 1682.24 970.269 803.988 736.219 597.508 586.342 585.55 522.696 409.097 351.202 299.11 294.117 286.836 255.935 218.151 210.788 194.354 189.846 182.311 172.483 161.336 160.183 159.148 158.84 151.489 147.239 145.616 132.583 138.786 131.609 130.437 126.619 122.055 216.484 120.901 117.42 117.387 111.97 108.679 105.524 100.876 100.481 98.5334 111.657 98.1315 101.817 97.3821 89.2562 88.8115 88.2699 86.8057 133.46 85.8585 82.082 81.9474 92.3042 81.8785 76.965
threshold=2505.0000000000005 13874.500000000002 744.50000000000011 29410.500000000004 7022.5000000000009 0.35034497082233435 0.43065831065177923 55801.500000000007 0.35288985073566442 0.42615553736686712 274.50000000000006 0.41131731867790228 1.0000000180025095e-35 0.50671759247779857 0.57759502530097973 0.43065831065177923 0.42106404900550848 0.65000000596046459 0.56097090244293224 1.1500000357627871 1126.5000000000002 0.84999999403953563 0.47064210474491125 17559.000000000004 4.0382690429687509 0.26545275747776037 3371.5000000000005 0.84999999403953563 0.28384213149547582 0.44974872469902044 0.55524858832359325 1.5000000000000002 18510.000000000004 2.5000000000000004 1.0500000119209292 0.46588231623172766 3.9667345285415654 0.22601729631423953 1.5000000000000002 0.6805778741836549 0.38280205428600317 774.00000000000011 0.55524858832359325 0.31520003080368048 0.36996778845787054 0.065942030400037779 291.50000000000006 0.34461143612861639 0.31632132828235632 0.92934837937355053 288.50000000000006 0.53015476465225231 0.48974442481994634 3743.5000000000005 0.93257662653923046 1318.5000000000002 3.8152202367782597 3.1657758951187138 0.41127720475196844 0.0050505620893090972 108.50000000000001 0.27656920254230505
decision_type=2 2 2 2 2 2 2 2 2 2 2 2 2 2 2 2 2 2 2 2 2 2 2 2 2 2 2 2 2 2 2 2 2 2 2 2 2 2 2 2 2 2 2 2 2 2 2 2 2 2 2 2 2 2 2 2 2 2 2 2 2 2
left_child=2 4 10 11 5 13 9 12 14 19 42 16 25 21 27 18 23 45 34 54 -11 41 -12 -3 52 -5 -15 61 -18 -22 48 32 -30 -19 53 -8 37 -17 -23 46 -24 -2 -1 -28 -14 -10 47 -27 -13 -50 -33 -31 60 -7 55 -4 -32 -29 -26 -60 -9 -6
right_child=1 3 6 7 8 15 35 24 17 20 22 30 44 26 -16 36 28 33 -20 -21 29 38 40 -25 58 39 43 57 31 51 56 50 -34 -35 -36 -37 -38 -39 -40 -41 -42 -43 -44 -45 -46 -47 -48 -49 49 -51 -52 -53 -54 -55 -56 -57 -58 -59 59 -61 -62 -63
leaf_value=-0.070296516108928161 -0.028419046791650412 0.00044065006171313114 -0.045346213265317042 0.021114630371855164 -0.0063559571140952374 -0.0057639127682518809 -0.0076892204784922979 0.062437771367677343 0.028222150810331442 -0.038555132727844083 -0.062420047483688582 0.040848131767418888 0.061077684872998729 -0.017637864201669403 0.018435710294492823 -0.013920709337727565 0.019936179401270206 0.021948319610014491 0.012856234594226383 -0.058872164293239285 -0.034058832243813064 -0.018594808351450016 -0.052046497655260364 0.024162173585423156 0.050797884909149452 0.026272903829324092 -0.0055471818257216768 -0.023143750369790883 0.030087662238601653 -0.026655969678971381 0.044950125842733175 0.027208428543929117 0.040608661323598853 0.0024202363731198879 -0.023028940103851231 0.025875067866953073 0.043529707994607418 0.025413935019232399 -0.040129218609637793 -0.0077133566637420051 -0.029497386260270569 -0.0066026725296484696 0.0069589310503643739 0.009475074868749064 0.015852395054530025 0.041656703520727395 0.058994855979375344 0.043545060625045026 0.042108741779840635 -0.0091005254743785624 0.05039857648182855 -0.010721882976971979 0.055218097978218056 0.01542219488237128 -0.048571214881846882 -0.016759138258149297 0.062605393107696389 -0.001847529371515215 0.023065541657243976 0.061857833672013453 0.039143801820942292 0.011415138125651295
leaf_weight=47286.807569699973 767.45146957598627 1173.840856535593 827.28799121666816 837.99375243950635 727.55289094639011 1615.8047710930696 567.57392008713214 455.30883189104497 5422.4632034348324 2331.8878575025592 4877.8411761169555 5653.8764397013001 3901.8746612044051 1353.4338181426283 5969.0094932778738 427.09062973805703 2568.1965972469188 2855.0521846530028 3605.5742943417281 2408.5211477173143 1614.1497212153918 1256.6940305455064 3026.9594223766471 2207.2235514482018 2173.9910983061418 969.87570074852556 2380.2174571311334 624.99211627902696 5488.5884170276113 1328.9758007332566 1508.4095203303732 9226.8474783822894 7308.3047141884454 1236.4422052486334 773.0586120627122 556.4802914718166 601.27686032280326 1932.7930408159737 1354.0741928067291 112.39018679969013 713.14549714123132 2517.1257512722514 45.566490857396275 2297.3340719721746 127.32405007909983 1872.4043742706999 989.59224224463105 26550.980952731334 182.74963468685746 207.02228356245905 476.05883910739794 2594.9281805174542 3562.1740133678541 706.65988345211372 1295.088152595592 806.07790549605852 1267.0309899561107 1639.0582655337639 155.36834458634257 11777.240248804912 2200.2777716424316 3747.3242061634082
leaf_count=5336382 36870 22348 68987 3863 17803 48730 24217 556 47031 150994 521899 22615 5338 44354 71324 10602 22467 33985 61540 242334 92800 56024 266372 22526 5363 5133 61728 29822 31602 74848 6005 64641 26321 26283 35154 10997 3785 27470 85806 1325 50670 79187 1803 43380 1487 12242 1610 69676 926 2670 1471 98986 5570 13144 105594 43001 1852 42998 257 14187 6090 61988
internal_value=5.62604e-05 0.0312382 -0.0606228 0.0425644 0.00865598 -0.00148039 -0.0316669 0.0492614 0.0177382 -0.0351219 -0.0680395 0.0328939 0.0447055 -0.0110213 0.0102851 0.0102962 0.0295971 0.0260564 0.00449722 -0.0479152 -0.0264462 -0.0196996 -0.0560521 0.0159265 0.0567686 0.0426618 -0.00253819 0.00306563 0.0314409 -0.0213475 0.0435292 0.0327541 0.0360962 0.016047 -0.00523912 0.0089273 0.0234192 0.0182952 -0.0297636 0.0432927 -0.0477469 -0.0117001 -0.0702221 0.00183085 0.0596486 0.0316705 0.0434938 0.0429364 0.0391753 0.0149096 0.0283462 -0.0161186 0.0500586 0.000682417 -0.0389037 -0.0312383 0.05301 -0.00772636 0.0597261 0.0613527 0.0431376 0.0085258
internal_weight=207047 136765 70281.3 91082.5 45682.9 21588.6 14331 53814.4 24094.3 13206.9 55950.3 37268.1 33490 11926.3 12707.9 9662.26 28449.1 11386.4 6701.1 5336.98 7869.94 5895.35 8617.95 3381.06 20324.4 29460.8 6030.99 6738.93 25068 5538.05 8819.09 22499.8 12796.9 4091.49 3095.52 1124.05 2961.16 2359.88 2610.77 28622.8 3740.1 3284.58 47332.4 4677.55 4029.2 7294.87 28510.4 27520.9 6043.65 389.772 9702.91 3923.9 6217.76 2322.46 2928.45 1633.37 2775.44 2264.05 14106.6 11932.6 2655.59 4474.88
internal_count=8387033 1297149 7089884 345899 951250 607774 912758 120455 343476 877544 6177126 225444 88432 407349 223935 200425 191376 119541 158568 459916 417628 257887 838941 44874 32023 81607 149462 152611 146502 266634 34068 124035 57923 60268 97028 35214 41857 38072 141830 77744 317042 116057 5338185 105108 6825 59273 76419 74809 26211 3596 66112 173834 12216 61874 217582 111988 7857 72820 19807 14444 6646 79791
is_linear=0
shrinkage=0.05


Tree=8
num_leaves=63
num_cat=0
split_feature=7 7 7 7 7 20 20 20 7 6 8 7 6 12 3 12 12 4 6 4 2 17 20 12 9 7 12 12 2 7 12 20 7 8 6 6 17 13 1 5 20 4 13 7 6 20 10 20 17 10 8 6 8 20 17 10 8 3 20 16 6 20
split_gain=141385 13844.4 4994.12 2371.72 1601.9 901.983 689.725 667.312 560.389 542.651 513.683 451.26 378.681 326.056 321.517 283.239 260.861 250.86 245.893 223.071 216.589 214.063 205.28 196.643 186.215 181.624 177.472 176.613 175.162 164.922 164.513 154.898 149.323 139.523 138.159 133.618 120.722 109.029 108.917 105.77 101.636 97.9722 94.911 101.275 93.9174 89.6019 89.0887 86.9519 87.1615 85.0714 84.7506 84.6389 133.241 83.5086 82.4808 81.2117 101.486 79.547 77.339 75.7127 94.6001 74.7563
threshold=2327.5000000000005 13874.500000000002 665.50000000000011 39142.500000000007 7022.5000000000009 0.35034497082233435 0.4339642226696015 0.45451986789703375 21042.500000000004 3.7299919128417973 0.47956199944019323 207.50000000000003 3.7844923734664921 0.84999999403953563 0.076982256025075926 1.0500000119209292 0.94999998807907116 1.0000000180025095e-35 3.9667345285415654 1.0000000180025095e-35 0.1234756112098694 1.5000000000000002 0.43065831065177923 1.1500000357627871 0.66548746824264537 1203.5000000000002 0.35000000894069677 0.75000000000000011 0.047065338119864471 61754.000000000007 0.75000000000000011 0.31671968102455145 4061.5000000000005 0.47064210474491125 3.1079118251800542 3.2068316936492924 2.5000000000000004 0.8934762477874757 0.21111111342906955 1.0000000180025095e-35 0.28615693747997289 1.0000000180025095e-35 0.9991709589958192 8660.0000000000018 4.126603603363038 0.33496943116188055 7687.5000000000009 0.28090685606002813 1.5000000000000002 3841.0000000000005 0.60007062554359447 3.4558711051940922 0.26523897051811224 0.25415056943893438 1.5000000000000002 2775.0000000000005 0.69455826282501232 0.90387171506881725 0.32445272803306585 0.17424242943525317 4.199519395828248 0.26801493763923651
decision_type=2 2 2 2 2 2 2 2 2 2 2 2 2 2 2 2 2 2 2 2 2 2 2 2 2 2 2 2 2 2 2 2 2 2 2 2 2 2 2 2 2 2 2 2 2 2 2 2 2 2 2 2 2 2 2 2 2 2 2 2 2 2
left_child=2 4 11 6 5 13 8 10 16 15 23 -1 20 32 18 22 40 31 27 33 -5 -15 61 39 -18 58 -8 -7 29 59 36 -11 47 -13 -32 -17 44 -33 -31 -4 -3 -20 43 -39 53 -36 -29 -2 -49 -34 -27 52 -28 -10 -22 56 -42 -9 -12 60 -14 -6
right_child=1 3 7 12 9 14 26 57 30 17 25 19 28 21 -16 35 24 -19 41 -21 54 -23 -24 -25 -26 50 51 46 -30 38 34 37 49 -35 45 -37 -38 42 -40 -41 55 -43 -44 -45 -46 -47 -48 48 -50 -51 -52 -53 -54 -55 -56 -57 -58 -59 -60 -61 -62 -63
leaf_value=-0.068556131177881577 -0.030276884537493692 0.015188342245838588 -0.038998805801207986 0.032198690449127772 -0.0080897107845042081 0.0066084620837929924 0.05284501405334846 0.0080014691475008143 0.014562777445967312 0.0109134825506969 -0.044935942429035002 -0.062341074321910064 0.042819283948531989 -0.01366936445291566 0.033175562171959792 -0.022892541201398938 -0.0032109679786582906 0.051170704602699874 0.016981419066496601 0.007804394378649957 -0.005238184489719115 -0.036611430280201328 0.032670329032722469 -0.055204239825251016 0.021106358550100783 -0.025975836393344432 0.063341461400397772 -0.012670331926337873 0.05903950488501214 0.047401213166572295 -0.0061954334597631956 0.048064483033965266 -0.0031395578293319953 -0.049546416397413993 0.026660892130958076 0.0015250080349052085 0.024345039536602209 0.013660429236692695 0.060495531651837901 0.029356075197485249 0.024951674544636707 0.050862784547218459 -0.0045041323052725981 0.027330951821060101 0.052624252455363077 0.036300691750082312 0.033777725339598892 -0.0033354097924924971 -0.02260588834285461 0.014364849875625099 -0.011338871499618347 0.042860481793840388 0.017422651242702741 0.039909874146167361 0.062110026900170784 0.042018638222114366 0.034638039784702555 0.054424444182181744 -0.028168953626053667 0.055720749381009974 0.054209426919388265 0.01103597953432852
leaf_weight=43731.249996217186 650.56637237069663 1395.6539554262999 3950.3977396105765 3587.0015446594916 549.20636083954014 4602.1902864533477 5144.2005104953423 556.67496215019492 332.5337643949315 2620.780131081352 1219.9793685064069 5342.7490966762998 7967.3842585319653 2548.6260544374236 1179.2468449685257 822.14464951498667 1190.5948814461008 764.65894113015383 1626.1973355452064 133.80575657286681 47.811199043411762 1691.6104904724634 1109.9297474983614 2847.4158769881178 2323.9658580818214 2027.9812596010743 197.0638520848006 2156.5188781199977 9285.1027697389945 2269.7868790756911 239.11382019054145 474.49080245196819 3929.3194180454593 3544.1955929141113 4145.0518373921514 1759.0063427090645 1239.0930162062868 1718.2067109919153 5287.4725113753229 57.415853828657418 8146.6956511880271 245.58586995769292 293.46804329613224 6405.477751034312 1462.1017070803791 5760.8083499949425 108.42556586419232 1734.5050052907027 886.78765344357817 843.03180123632774 1930.2896082507214 3939.4563995664939 796.50469904951751 14245.875360437203 924.90728154405951 1158.6914972621016 4047.6217521028593 110.61407337104902 1576.4470549730759 2158.9350264063105 2363.7782267462462 7329.1792432562215
leaf_count=5136539 28577 16036 308039 13644 14558 99308 11365 15883 2684 37446 90674 608733 19696 95574 10863 38174 23851 1926 22258 3739 583 103300 9985 289595 17264 104162 291 76035 12056 4981 4192 2507 105852 324568 21342 41428 8205 22058 6806 925 59493 907 5299 50807 3475 20030 1902 49344 37941 16112 74114 11775 7680 49513 1173 5723 16973 361 92353 3812 3256 119288
internal_value=5.64192e-05 0.0294017 -0.0593556 0.040847 0.0071179 -0.00254678 0.0345071 -0.0331216 0.0318956 0.0161163 -0.0355151 -0.0664558 0.0512783 -0.0116021 0.00866899 0.00834654 0.0251099 0.0234383 0.00536202 -0.0562737 0.0378734 -0.0228219 0.0125389 -0.0451575 0.0128686 -0.0257293 0.0463473 0.000983228 0.0533621 0.0507325 0.0364145 0.0215963 -0.00568798 -0.0572384 0.0313604 -0.00625244 0.0393818 0.024745 0.0565627 -0.0380196 0.0280269 0.0214268 0.0234304 0.0244396 0.0405433 0.032267 -0.0104468 -0.0139153 -0.00985464 -4.7419e-05 -0.018838 0.0395714 0.0265302 0.0393317 0.0587997 0.0293688 0.0281668 0.0156968 -0.0354838 0.0472049 0.0454254 0.00970272
internal_weight=202736 135706 67029.2 89657.2 46049.2 22202.6 55765 14277.2 45687.8 23846.5 13609.9 52752 33892.2 12284.4 9918.16 11569.5 18263.2 12277.1 8738.92 9020.75 4559.72 4240.24 8988.32 6855.23 3514.56 6754.7 10077.2 6867.13 29332.5 20047.4 27424.6 11512.4 8044.21 8886.94 10145 2581.15 17279.6 8891.64 7557.26 4007.81 14748.7 1871.78 8417.15 8123.68 16040.5 9905.86 2264.94 3271.86 2621.29 4772.35 3958.27 4933.02 993.569 14578.4 972.718 13353 12194.3 667.289 2796.43 12490.1 10331.2 7878.39
internal_count=8387033 1337348 7049685 345899 991449 647973 279892 976106 248781 343476 959862 6073579 66007 436700 211273 223433 139340 120043 200410 937040 15400 198874 143831 598559 41115 361303 31111 177245 50607 38551 109441 118117 237826 933301 45564 79602 63877 80671 11787 308964 98225 23165 78164 72865 55672 41372 77937 115862 87285 121964 178276 19746 7971 52197 1756 82189 76466 16244 183027 26764 22952 133846
is_linear=0
shrinkage=0.05


Tree=9
num_leaves=63
num_cat=0
split_feature=11 11 11 11 11 20 20 20 3 11 11 12 3 12 6 6 12 4 0 11 12 12 4 11 13 10 6 12 6 6 19 3 4 6 6 16 6 5 0 20 10 10 10 12 9 0 20 10 0 12 2 2 20 0 16 0 12 13 6 16 12 1
split_gain=128393 12581.5 5221.96 2202.25 1718.84 849.224 627.177 618.705 545.39 541.519 460.125 379.836 353.642 324.362 299.027 241.971 235.126 214.946 198.702 197.901 197.583 186.247 186.158 176.927 165.054 159.414 156.892 147.141 145.316 134.428 129.369 119.362 118.91 114.222 110.597 108.493 108.173 136.516 106.193 100.967 100.879 99.5705 96.3969 92.1997 90.8689 87.7625 87.3235 97.3095 85.7141 79.3675 84.2214 78.2606 76.2415 74.7114 105.576 74.4862 72.3302 78.5419 71.6631 71.1459 70.8565 87.9786
threshold=7.8264424800872812 9.7302045822143572 6.6140549182891855 9.0123162269592303 10.817892551422121 0.34973916411399847 0.35944014787673956 0.42781430482864385 0.069178212434053435 5.3913497924804696 10.289066791534426 1.1500000357627871 0.24581205099821093 1.1500000357627871 3.7299919128417973 4.126603603363038 0.65000000596046459 1.0000000180025095e-35 0.47698216140270239 7.1542246341705331 0.84999999403953563 0.94999998807907116 1.0000000180025095e-35 8.4398798942565936 0.90963491797447216 1556.0000000000002 4.154625892639161 2.2500000000000004 3.9667345285415654 3.5530858039855961 0.32308603823184973 1.0000000180025095e-35 1.0000000180025095e-35 3.2857629060745244 3.2988760471343999 0.13809524476528171 3.7844923734664921 1.0000000180025095e-35 0.37522965669631964 0.30316726863384252 243.00000000000003 898.50000000000011 774.00000000000011 0.75000000000000011 0.67990183830261242 0.4049066454172135 0.33249372243881231 2129.0000000000005 0.43193821609020239 1.0500000119209292 0.068573668599128737 0.19371481984853747 0.30815292894840246 0.52613395452499401 0.080128207802772536 0.53670594096183788 1.3499999642372134 0.89982211589813244 4.0001444816589364 0.47727273404598242 0.75000000000000011 0.23611111193895343
decision_type=2 2 2 2 2 2 2 2 2 2 2 2 2 2 2 2 2 2 2 2 2 2 2 2 2 2 2 2 2 2 2 2 2 2 2 2 2 2 2 2 2 2 2 2 2 2 2 2 2 2 2 2 2 2 2 2 2 2 2 2 2 2
left_child=2 3 9 5 8 13 14 11 10 -1 26 19 16 23 20 18 32 29 60 52 -5 22 24 42 -8 -21 30 44 56 -11 41 -9 59 -15 -13 -32 -10 -38 -22 -27 -34 -3 -2 -28 46 -16 47 -12 -25 50 -46 -43 -4 54 -17 -35 57 -18 -44 -7 61 -6
right_child=1 4 7 6 15 12 21 31 36 17 27 34 -14 33 45 53 28 -19 -20 25 38 -23 -24 48 -26 39 43 -29 -30 -31 35 -33 40 55 -36 -37 37 -39 -40 -41 -42 51 58 -45 49 -47 -48 -49 -50 -51 -52 -53 -54 -55 -56 -57 -58 -59 -60 -61 -62 -63
leaf_value=-0.066833461603715227 -0.029914804756265897 0.025883689040292431 -0.047175607696828277 0.01148690558976838 0.021564311760297834 0.0094337371107501497 0.04398951502606506 -0.0067443580904338295 0.039016130411176311 -0.059405866246217603 0.028208886591913285 -0.054977746839636112 0.037744188154479823 -0.036076814609066567 0.0098897766942907164 0.056455082325801834 0.011562497638545041 0.0034553577243175019 0.051305094223508554 -0.037538331571085631 -0.026872867147598387 0.013296485508058989 0.046712485433923118 -0.0077986676551759547 0.024804614206381498 -0.029652275641089118 0.052147558498301799 0.0073487665452866176 0.019156071587118944 -0.047053712372330241 0.019206714644621061 0.026733893835697201 -0.031359025655065466 -0.020130317821513952 -0.03705390215982822 -0.019767123374018307 0.040215882833320789 0.060204882349296551 -0.0003524765141930338 -0.012547942094050416 0.041854319966454979 0.03214781502396083 -0.012592033640928146 0.029355304353460312 0.041997146608007761 0.023180203808885736 0.038791182866258378 -0.029381954883648267 0.0041400560215931513 0.034591199288897159 0.056143746828642475 0.060561043710826226 -0.031736230208201072 0.061160673140647326 0.041871638491227749 0.012030455401758068 -0.020196333521366808 -0.0079774008938108838 0.0072601467418735022 0.045986036424904952 0.047489762645731889 0.039752267364412293
leaf_weight=42412.682756541646 714.64805247468757 11237.199365403503 1197.987216261914 5973.638481963193 933.49673594068736 5798.1573381271446 1296.6289443075657 774.0011716306617 1532.499124600552 5635.6020063471515 2038.3229604181834 1960.9498782596784 980.71772417263128 1245.5056458830077 1604.5719264179934 5740.9662546240725 688.5430252738297 162.35596279310994 9073.7973127737641 1251.9792322798166 450.80415136448573 1989.8980574067682 1434.988984583877 2375.7299447634141 8281.7302459098864 1192.1330364075548 1120.0335388919339 359.3292851545848 631.00132595421746 3615.9176221048692 1321.0878767955583 405.85083299945109 52.075623953249305 1197.587420858792 1533.8124287477985 206.47136162500829 1192.4713635835797 3010.7848000340164 2320.2459480492398 3123.1585547733703 487.51825961424038 8802.9278124766424 3429.3325959337817 734.79931808030233 12160.92085321527 5499.2689258316532 3837.2039448311552 76.085922503843904 4094.459736204939 3330.8700582589954 1151.746046516113 249.21026913821697 2404.4591554796207 5152.6835338044912 1583.302000304684 211.8918756977655 792.57930817373563 2031.9526682920987 524.05803488125093 136.25359708024189 1558.7481027999893 2310.7032630788162
leaf_count=5181069 36711 67471 97527 88558 4598 105754 6353 32504 6167 657991 10540 211626 6882 82547 23210 8231 14697 4520 14668 86463 17964 28934 4830 69742 69743 69167 2505 1890 7873 333546 14751 6029 1399 47690 107459 5189 2809 3937 56889 140432 2536 43901 119377 3144 30976 46026 12234 742 85577 10216 2080 361 161551 5771 3280 5195 32220 57935 10703 979 3657 7707
internal_value=6.08654e-05 0.0283125 -0.0571384 0.00978439 0.0410805 -0.000954663 0.0192357 -0.0298586 0.0358388 -0.0644256 0.034049 -0.0330849 0.0090168 -0.00933973 0.0125582 0.0514951 0.00636345 -0.0535772 0.0469521 -0.0277391 0.00636802 0.0273742 0.0299178 -0.00559625 0.0274017 -0.0218304 0.0291579 0.039093 -0.00293627 -0.0545781 0.027971 0.00477164 0.0123163 -0.0250444 -0.0471112 0.0139388 0.0503879 0.054534 -0.00466691 -0.0172731 0.0347886 0.0290274 -0.0130153 0.0431183 0.0395978 0.0201782 0.0342954 0.0261365 -0.000243615 0.041494 0.043221 0.03293 -0.0368706 0.0565478 0.0533025 -0.0152955 -0.00690438 -0.00303196 -0.00996045 0.010273 0.0387284 0.0345188
internal_weight=198630 132959 65670.9 54243.8 78715.7 25392 28851.8 13844.3 52362 51826.6 46626.2 12664.5 11598.8 13793.2 15848.5 26353.7 10618.1 9413.88 13876.7 9169.72 8744.69 13003.2 11013.3 11138.2 9578.36 5567.27 23671.7 22954.5 4144.08 9251.52 21816.9 1179.85 6474 2654.98 3494.76 1527.56 5735.76 4203.26 2771.05 4315.29 539.594 20289.3 4668.04 1854.83 22595.1 7103.84 5951.61 2114.41 6470.19 16643.5 13312.7 9052.14 3602.45 12477 7324.27 1409.48 3513.08 2720.5 3953.39 5934.41 4802.95 3244.2
internal_count=8387033 1297149 7089884 1030324 266825 687817 342507 912758 218913 6177126 206000 874225 230275 457542 232647 47912 223393 996057 30630 555140 163411 109860 80926 322110 76096 296062 137322 68678 112725 991537 131673 38533 110668 135432 319085 19940 12913 6746 74853 209599 3935 111733 166791 5649 66788 69236 23516 11282 155319 43272 33056 44262 259078 17282 11511 52885 104852 72632 130080 106733 15962 12305
is_linear=0
shrinkage=0.05


Tree=10
num_leaves=63
num_cat=0
split_feature=7 7 7 7 7 12 20 7 20 3 3 9 7 20 8 7 8 8 2 3 12 8 20 8 8 20 8 20 7 0 3 8 0 2 19 10 10 15 6 2 1 8 9 20 12 0 6 6 6 19 13 0 20 20 2 14 12 1 10 12 12 20
split_gain=116774 10260.3 6991.4 1760.86 1583.25 660.134 624.196 572.868 535.94 506.022 500.278 488.25 311.105 285.243 267.701 266.547 263.993 254.198 202.999 171.583 162.458 161.941 153.773 153.587 152.831 146.039 126.982 122.093 118.905 114.158 113.827 112.295 112.13 111.763 106.203 105.255 102.607 133.407 100.925 95.6933 93.9011 93.7029 92.4533 90.4244 90.3441 89.8272 88.4761 88.0981 88.0315 133.467 83.2939 82.3857 81.363 81.1055 80.5067 78.4627 78.0261 76.3224 75.7887 75.0333 73.6157 73.5861
threshold=3160.0000000000005 16817.000000000004 744.50000000000011 39142.500000000007 8202.5000000000018 1.1500000357627871 0.33608062565326696 274.50000000000006 0.35944014787673956 0.063430374488234534 0.051243120804429061 0.78921136260032665 1628.5000000000002 0.45451986789703375 0.57435104250907909 23598.500000000004 0.48093944787979132 0.50671759247779857 0.027402402833104137 0.043302519246935851 0.84999999403953563 0.52691909670829784 0.33249372243881231 0.42615553736686712 0.46400769054889685 0.33447159826755529 0.57435104250907909 0.55524858832359325 61754.000000000007 0.48974442481994634 1.0000000180025095e-35 0.42106404900550848 0.4034262895584107 0.047065338119864471 0.3333395123481751 5236.5000000000009 1042.0000000000002 0.98451673984527599 3.5714652538299565 0.022991543635725979 0.21111111342906955 0.57759502530097973 0.68927580118179332 0.30667068064212805 1.3499999642372134 0.4049066454172135 3.945697665214539 4.0161831378936776 3.9667345285415654 0.22601729631423953 0.9991709589958192 0.44699892401695257 0.41789169609546667 0.31011188030242925 0.049390243366360671 7.5000000000000009 0.25000000745058065 0.29285715520381933 960.50000000000011 0.55000001192092907 0.94999998807907116 0.27051964402198797
decision_type=2 2 2 2 2 2 2 2 2 2 2 2 2 2 2 2 2 2 2 2 2 2 2 2 2 2 2 2 2 2 2 2 2 2 2 2 2 2 2 2 2 2 2 2 2 2 2 2 2 2 2 2 2 2 2 2 2 2 2 2 2 2
left_child=2 4 7 9 6 10 17 27 14 15 12 18 25 16 20 34 44 32 39 26 -6 -14 31 -7 -9 -4 59 -1 33 -20 -26 -17 -2 -13 54 -23 37 55 57 43 -30 -11 51 -5 -8 -16 -27 -21 49 56 -28 -22 -12 -19 -3 -15 -18 -31 -45 -10 -36 -33
right_child=1 3 5 11 8 23 13 24 19 41 52 28 21 36 45 22 48 53 29 47 42 35 -24 -25 30 46 50 -29 40 38 -32 61 -34 -35 60 -37 -38 -39 -40 -41 -42 -43 -44 58 -46 -47 -48 -49 -50 -51 -52 -53 -54 -55 -56 -57 -58 -59 -60 -61 -62 -63
leaf_value=-0.065241193072152079 -0.029884858113360425 0.024712831563211864 -0.038639609491568645 0.017874903428920265 0.010665373730669695 -0.050480602320936187 -0.0037537238888608309 -0.056846096294335659 0.022499258606952146 0.037406749549191369 -0.007020137505755023 0.045469140621336501 -0.023594791946018108 -0.032713625009607922 0.0087436210592924373 0.011090519105151162 0.013457516032489059 -0.0066977255587270081 0.033583304045372596 0.034479566376187057 -0.018788854750851722 -0.012793972821393393 0.037091389368798668 -0.030436843455696274 -0.044315577704197778 -0.026032371739328715 0.028457042971702085 0.01456863440741488 0.047128001159471293 -0.019756292819858259 0.011757141482683885 0.019805318691864828 -0.012622694972534657 0.054917174418828797 0.021875868924238914 0.0070757541708833943 0.035210831845473092 0.037392511143041776 0.057950363514581674 -0.0067662998168878941 0.058527406967249063 0.052772400956616887 0.016482537828293641 0.037601461384589419 -0.026314762226967044 0.021933860565286199 0.0012854273364430865 0.065082846397682331 0.020253908884534648 0.01203874396310072 -0.00282435799465958 0.00059041788565862661 0.032272778787952407 0.0061092274798715878 0.035578614676648121 0.0093244252746815335 -0.012217706048336874 0.040385356760055884 0.0067502407161935804 0.0088218435211667671 -0.013242818022469717 0.032596778888739818
leaf_weight=41854.705645491558 1291.6870216373936 10739.150000204565 2988.8851301818504 806.05255233170465 5648.8410004354082 2620.9636791845842 2425.3480441005668 4278.7378764080058 2133.2714893817902 1393.0242197150365 179.78462591665448 8565.890397880692 2989.2950760965759 158.07743979687802 1666.1532714634668 784.84914949163795 400.12935007014312 2879.9018502359977 1075.5728958258405 2147.8855816836003 1037.733672012575 2643.5475362002617 16548.907783509698 1504.2599496574985 3510.2859251955815 2433.2651673574292 6227.8106355899945 47.975057244650088 2317.5015084431507 58.945239371154457 92.902239679649938 1309.4623391670175 3462.5266878201219 4932.4867236148566 308.15141158457845 891.18859598739073 1132.0056811391842 327.29104033345357 2090.1970218978822 153.85049057565629 8193.5805256636813 3448.0601277258247 443.2346455185907 4124.9163480503485 543.09606458328199 5728.7622174334247 337.5096269819187 264.0767276789993 1598.7634760036599 3648.8217165517854 220.33327880408615 1163.108133800677 493.06418143189512 2166.0099552258616 2026.3704606499523 372.70402568322606 1136.0064855138771 502.10541281849146 209.16123388148844 1892.1153623869177 289.3305290741846 7952.7091642981395
leaf_count=5335307 70793 66998 222056 5242 86486 270844 74547 512500 21371 5800 7459 19082 161208 4657 24407 8778 6507 77008 3592 11677 38680 89967 54184 89980 323159 149675 41059 1813 5215 559 4187 6986 134130 6699 3553 25665 9415 2309 2732 676 10698 5980 6604 10068 29318 48408 10469 288 19089 61479 3492 28320 4720 43769 10030 6013 29142 1147 661 31812 7104 31199
internal_value=0.000194828 0.0281798 -0.0533533 0.0395417 0.0105347 -0.025752 0.000299636 -0.0628236 0.0182513 0.033084 -0.0202057 0.0483004 -0.0225052 0.00807506 0.0120452 0.0312344 0.00455471 -0.00901666 0.0383828 0.0258071 0.00587749 -0.0150287 0.034129 -0.0431717 -0.0504569 -0.0309739 0.0230382 -0.0651498 0.0520266 0.0473224 -0.0428698 0.0292496 -0.0173127 0.0489216 0.0254733 -0.00778436 0.0253262 0.0122859 0.0528962 0.0320896 0.056014 0.0483509 -0.00435142 0.0332526 -0.00788141 0.018962 -0.0227048 0.0378302 0.00999655 0.00683373 0.0273882 -0.00854723 0.0217737 -0.00120021 0.0264376 -0.00319536 -0.00552988 0.0340667 0.0361126 0.0160702 0.00486965 0.0307884
internal_weight=194812 127946 66866.4 77830.3 50115.7 17081.8 21542.4 49784.6 28573.3 44800 12956.5 33030.3 12283.7 11742.2 15687.8 39958.9 9752.17 9800.13 9020.8 12885.5 8292.92 6524.03 26595.9 4125.22 7881.93 5759.66 10473.5 41902.7 24009.5 3726.82 3603.19 10047 4754.21 13498.4 13363 3534.74 1990.08 858.073 2651.25 5293.98 10511.1 4841.08 2644.08 5140.13 2968.44 7394.92 2770.77 2411.96 6783.72 5184.96 6448.14 2200.84 672.849 5045.91 12765.5 530.781 1536.14 561.051 4334.08 4025.39 597.482 9262.17
internal_count=8386772 1177763 7209009 266983 910780 1032043 568176 6176966 342604 200612 671219 66371 659040 242476 232905 188832 220082 325700 24677 109699 160090 276840 101147 360824 839846 382200 97734 5337120 41694 8030 327346 46963 204923 25781 87685 115632 22394 12979 4438 16647 15913 11780 73604 15971 103865 72815 160144 11965 116217 97128 44551 67000 12179 120777 77028 10670 35649 1706 10729 53183 10657 38185
is_linear=0
shrinkage=0.05


Tree=11
num_leaves=63
num_cat=0
split_feature=7 7 7 7 7 20 20 7 20 3 8 7 7 8 3 3 20 8 19 6 7 3 4 20 17 20 8 4 8 19 17 8 17 10 3 8 7 10 19 19 7 20 14 6 14 1 8 5 9 9 10 20 9 16 10 15 6 8 19 20 17 18
split_gain=106605 9758.61 6597.18 1893.22 1418.51 582.843 572.109 562.967 480.959 479.795 410.718 320.377 319.795 318.392 261.369 251.958 239.726 234.941 218.871 215.695 180.622 161.825 154.944 151.616 151.03 142.166 126.279 119.312 117.058 104.609 103.66 100.994 100.941 97.066 95.6881 95.2606 93.3242 91.9739 91.9215 91.3257 85.0877 85.0041 94.0746 83.9766 83.5761 86.6092 82.9491 113.903 82.5132 74.3426 72.8985 70.785 70.1321 69.9906 69.9394 69.2731 68.8213 68.0845 111.16 67.5591 66.945 66.6364
threshold=3160.0000000000005 16817.000000000004 744.50000000000011 39142.500000000007 8202.5000000000018 0.36487284302711492 0.3876150399446488 274.50000000000006 0.35944014787673956 0.069178212434053435 0.44179354608058935 61754.000000000007 29410.500000000004 0.37781868875026708 1.0000000180025095e-35 0.063430374488234534 0.41570946574211126 0.57435104250907909 0.22678967565298083 3.9667345285415654 1628.5000000000002 0.043302519246935851 1.0000000180025095e-35 0.33496943116188055 2.5000000000000004 0.31011188030242925 0.44463601708412176 1.0000000180025095e-35 0.57435104250907909 0.36031937599182134 1.5000000000000002 0.34289140999317175 2.5000000000000004 108.50000000000001 0.16606567054986957 0.55319839715957653 1318.5000000000002 4662.5000000000009 0.32308603823184973 0.19416929036378863 1358.5000000000002 0.31111726164817816 167.50000000000003 4.0161831378936776 270.50000000000006 0.43650794029235845 0.59393891692161571 1.0000000180025095e-35 0.60641694068908703 0.7279566526412965 3250.0000000000005 0.29312901198863989 0.66831442713737499 0.13809524476528171 2303.0000000000005 0.95393937826156627 4.0001444816589364 0.48370410501956945 0.23205333203077319 0.30667068064212805 1.5000000000000002 4.5000000000000009
decision_type=2 2 2 2 2 2 2 2 2 2 2 2 2 2 2 2 2 2 2 2 2 2 2 2 2 2 2 2 2 2 2 2 2 2 2 2 2 2 2 2 2 2 2 2 2 2 2 2 2 2 2 2 2 2 2 2 2 2 2 2 2 2
left_child=2 4 7 9 5 13 10 27 17 12 36 16 23 50 24 19 18 31 34 30 59 28 26 35 40 -15 -9 -1 -10 55 -7 -6 39 -13 -5 53 -4 -22 48 -25 -8 42 -35 -23 45 61 -11 -48 -34 -30 -2 -19 -47 -3 -38 -14 -53 -32 -59 -12 -61 -18
right_child=1 3 6 11 8 15 14 22 21 46 20 33 29 25 -16 -17 44 51 -20 -21 37 43 -24 32 -26 -27 -28 -29 49 -31 57 -33 38 41 -36 -37 54 -39 -40 -41 -42 -43 -44 -45 -46 52 47 -49 -50 -51 -52 56 -54 -55 -56 -57 -58 58 -60 60 -62 -63
leaf_value=-0.063995860807650087 -0.025756635369225137 0.016131156060103066 -0.048075061220889184 0.045301438065412238 -0.007419973224639719 0.016656305348573357 -0.020261757698033941 -0.056329507852638655 0.014774473151557173 0.037563465969537135 -0.039770368692173624 0.058461099041430258 0.034589892562517613 -0.0092610405631414587 0.022030122028866891 0.03107868149659896 0.046065152484233311 0.0079340364000316105 0.03191685785941227 0.025452475257353131 -0.020832870138001711 0.032771457413505643 0.0037016507509302667 0.020674233661306156 -0.030288245769734063 0.0025604156170410722 -0.043365592357579225 -0.012712175225043632 0.034409335112470241 0.0023024814517849266 -0.0092073244120636204 0.0077048953454400444 0.046505051469348357 0.022960582389972412 0.0043289005706469439 0.024430853772903098 -0.042853514005373641 -0.005456462761465497 -0.0043343529579038835 0.033423703219424269 0.0030199895170598171 0.052593105709962097 0.055087346992035102 0.063076838274636601 0.033400876412525683 0.017738377188179496 0.038202977430987523 0.058307410646271089 0.020572113502973586 0.022375769997736272 -0.0082895768899122133 0.016695356737351497 0.054700939704221491 -0.01017415715492539 -0.028422624114330955 0.04755260148480079 0.02878835391732458 -0.0087502818112985166 0.011938199708289807 -0.018279338887288249 -0.034643167870712047 -0.040601896427879168
leaf_weight=40067.984131248406 2136.4131232036452 2754.4609381561168 2181.227865344059 9690.8049208158627 1314.8937432910316 1030.8158924451564 593.74114717455814 3856.8140970493259 3955.4356405762956 1730.6763632390648 1243.5249096688058 6326.816398145631 14963.8021026114 4330.5933873951726 651.05064889439382 1273.8973708755802 45.92400495428592 1499.9453150869813 5078.272805666551 1254.061222598888 2621.4385932152218 2081.661516017979 136.68215616978705 1659.309292672202 877.43314802984241 6162.2679519561352 3661.9925796423922 113.73614434507908 1776.4947754673194 241.11116827325895 1591.6252140919678 6871.847713761963 355.01287999283522 583.03589615784585 144.62575055286288 6564.3331030849367 1509.2419935418002 1546.0855703617563 318.98697349894792 9149.758228990715 1157.5276215509512 3054.5633052224293 374.05647098878399 256.78919083252549 579.17982463911176 131.06284142285585 1086.7726221969351 2002.9840218592435 2255.4647694798186 4624.8069259466138 829.17047906131484 4153.5135492573027 6157.4469434898347 278.42767388885841 1892.3289360455819 1106.8928326820023 1641.4609987707809 1069.3820387929445 1652.7415300149005 1408.7559665371082 1123.4405336375057 42.895529727451503
leaf_count=5330207 114478 27061 225785 19408 41873 15399 35272 486052 53183 6454 93202 7945 46125 134783 10580 11155 135 19997 20377 12405 113920 11677 3718 8697 53385 139200 350076 6913 9778 3220 54872 118217 1408 2497 381 37205 132280 53822 6095 36226 34945 5053 593 288 650 436 2610 2658 15250 34773 32421 41836 8410 5167 132821 2436 10982 26242 27221 73266 72765 486
internal_value=0.000197557 0.0269458 -0.0520156 0.0381187 0.00964147 -8.57799e-05 -0.0250667 -0.0614831 0.0170054 0.0314322 -0.0296094 0.0473503 0.0296212 -0.00640699 -0.00633209 0.0107206 0.0439217 0.0110899 0.0403465 0.0067904 -0.022305 0.0242192 -0.0490564 0.0258669 -0.0133566 -0.00231851 -0.0500155 -0.0638507 0.0215368 0.0349923 0.00241149 0.00527565 0.0292353 0.0546033 0.044699 0.0210449 -0.0400021 -0.0151285 0.0210028 0.0314665 -0.00487333 0.048519 0.0355166 0.0360993 0.0515865 0.0532381 0.0463272 0.051236 0.0240989 0.0257153 -0.0208729 0.017615 0.0539306 0.0137163 -0.0348255 0.0354827 0.0201208 -0.000992465 0.00381076 -0.0302263 -0.0255394 0.00420917
internal_weight=190828 126184 64643 76676.7 49507.8 21331 16805.8 47837.2 28176.8 44468 13526 32208.7 39647.6 13458.4 3279.75 7872.52 21870.2 15481.7 14913.7 6598.63 7943.25 12695.2 7655.49 23335.8 2628.7 10492.9 7518.81 40181.7 10356.7 16311.8 5344.56 8186.74 13738.5 10338.5 9835.43 9597.22 5582.8 4167.52 2929.46 10809.1 1751.27 4011.66 957.092 2338.45 6956.51 6377.33 4820.43 3089.76 2610.48 6401.3 2965.58 7294.92 6288.51 3032.89 3401.57 16070.7 5794.97 4313.75 2722.12 3775.72 2532.2 88.8195
internal_count=8386772 1177763 7209009 266983 910780 568176 1032043 6176966 342604 200612 897861 66371 188890 420882 134182 147294 50283 232905 40166 136139 406975 109699 839846 137109 123602 273983 836128 5337120 97734 51781 123734 160090 67676 16088 19789 69433 490886 167742 22753 44923 70217 8143 3090 11965 10117 9467 11722 5268 16658 44551 146899 72815 8846 32228 265101 48561 52818 108335 53463 239233 146031 621
is_linear=0
shrinkage=0.05


Tree=12
num_leaves=63
num_cat=0
split_feature=11 11 11 11 11 15 6 11 12 12 11 4 3 0 6 3 8 3 8 0 8 13 11 2 6 12 4 12 16 6 12 11 2 0 8 12 19 0 12 4 0 0 6 12 0 11 0 8 11 17 6 12 0 0 6 14 1 12 0 16 11 1
split_gain=97403.3 11081.3 4121.32 2254.64 1245.74 584.41 570.059 529.841 423.915 390.912 343.332 326.28 325.606 305.032 280.785 222.888 220.902 197.541 189.915 182.698 171.501 170.76 167.258 165.959 154.489 150.797 143.334 132.431 124.553 120.427 114.269 107.376 104.161 98.5797 95.6422 95.4121 94.9415 91.5814 87.2266 86.0094 84.9848 83.7807 78.0792 76.755 82.9614 76.736 75.0791 74.3655 74.141 73.4571 86.001 76.7048 85.4307 72.4835 69.832 69.5309 80.7906 69.4896 68.5928 70.4189 67.4503 66.4556
threshold=7.7529795169830331 9.5378794670104998 6.3877203464508066 10.817892551422121 8.5243673324584979 0.98451673984527599 3.7299919128417973 10.289066791534426 0.84999999403953563 0.65000000596046459 5.3399362564086923 1.0000000180025095e-35 1.0000000180025095e-35 0.46021471917629247 4.126603603363038 1.0000000180025095e-35 0.41383436322212225 0.063430374488234534 0.41383436322212225 0.46115717291831976 0.60007062554359447 0.8934762477874757 9.0665855407714862 0.054804805666208274 4.154625892639161 1.0500000119209292 1.0000000180025095e-35 0.55000001192092907 0.26136364042758947 3.9829809665679936 0.94999998807907116 7.4336664676666269 0.03637566231191159 0.48124021291732794 0.59020894765853893 0.75000000000000011 0.29212574660778051 0.6078329086303712 1.1500000357627871 1.0000000180025095e-35 0.45928795635700231 0.60263872146606456 3.1959002017974858 0.55000001192092907 0.36348442733287817 7.1542246341705331 0.36348442733287817 0.40906643867492681 8.9270486831665057 3.5000000000000004 4.1047277450561532 0.55000001192092907 0.42622181773185736 0.29926139116287237 3.9667345285415654 292.50000000000006 0.53571429848670971 2.2500000000000004 0.52613395452499401 0.080128207802772536 7.0277581214904794 0.17424242943525317
decision_type=2 2 2 2 2 2 2 2 2 2 2 2 2 2 2 2 2 2 2 2 2 2 2 2 2 2 2 2 2 2 2 2 2 2 2 2 2 2 2 2 2 2 2 2 2 2 2 2 2 2 2 2 2 2 2 2 2 2 2 2 2 2
left_child=2 4 10 5 9 7 13 16 12 15 39 21 20 27 23 29 33 24 -10 -11 45 -8 -23 38 40 28 34 -6 48 46 32 -22 41 36 -12 -26 -3 -35 55 -1 61 47 -29 44 -24 -4 -2 -9 -15 50 51 52 -34 -40 -55 56 -5 -32 59 -16 -20 -18
right_child=1 3 8 14 6 -7 11 30 18 19 26 -13 -14 25 58 -17 17 -19 60 -21 31 22 43 -25 35 -27 -28 42 -30 -31 57 -33 49 37 -36 -37 -38 -39 53 -41 -42 -43 -44 -45 -46 -47 -48 -49 -50 -51 -52 -53 -54 54 -56 -57 -58 -59 -60 -61 -62 -63
leaf_value=-0.06309249024310884 -0.030750498083675123 -0.033282610909560424 -0.036665429215111428 0.032855172392411328 0.0022760333022369575 0.047719256969783484 0.034284363134672882 0.011458062105315817 -0.048570973553530787 -0.029753889975561377 -0.054405416729615276 0.045536791599355031 0.016704451497130256 0.0022184742217759021 0.052761695157495597 0.025663252834278467 0.011065290978834129 0.040258076986074767 -0.03982662192484171 -0.011449837060934227 -0.021224455013145627 0.0062407905208832007 -0.0040826499018775386 0.050865865117701338 0.047574708599994228 -0.0036214218672332081 0.0039127540918584185 -0.025403748186569975 0.032625214458613272 0.010170761212436735 0.02967171576194846 0.001281752456700417 0.015588730799943031 0.024621826289067884 -0.038367977243249772 0.024608730812552066 0.0080102795943700414 -0.016120701156601303 -0.056785421729921362 -0.015439144896860688 0.02584124502652407 0.048491487538355402 -0.0079467203407117878 0.011752228229732117 0.023237822173187143 -0.024525824516602991 -0.0055783802678891171 0.033932508640752 0.01345550276665932 0.06126085419165838 0.056537732191015239 0.021181387828639871 0.046217319262459956 0.026591882350705021 0.054322088878880362 0.057714355561443602 0.046966054581109841 0.0060113655342571067 0.058052507848131867 0.040029789869970335 -0.024050942913344617 0.021857186522450542
leaf_weight=36864.65033512353 314.16431105992524 151.70656996103935 2600.4357019993768 5652.0341786369681 2797.0223786589922 4236.2265658020042 1031.9191642315127 379.99470622162335 3216.4342646302248 2184.4439317779033 5737.6763250080112 910.25233880756423 489.41344430932077 2160.6573995108483 5455.9526791572571 707.64518342283554 1762.113587865606 2191.5905553530902 1173.8883129698515 3626.4526790152304 1892.2226677956351 5284.7925067505566 295.61994270374998 4303.924081611447 1136.7825485658832 1990.5845618748572 117.39614309975877 865.18812229891773 659.17510711099021 1251.0358944023028 5592.4697717842646 736.13342691134312 266.9163038469851 1615.2961099643726 1109.401746591524 751.02328773634508 1688.8067572445143 150.80466920603067 16.044785112142563 94.932769998093136 15725.010421190178 971.03571838606149 2466.6570010103169 3311.3489562141476 4627.4814923023805 2606.6000864816597 5187.2174592692172 11731.522476837039 4578.2408582638018 523.15680253133178 693.51298788748682 606.99085794761777 1548.2566839819774 269.15821704175323 1450.6119884513319 367.3071252014488 1236.2235280033201 328.55689875967801 4755.5741845425218 1355.936911358498 1602.5259445779666 7490.1020864103921
leaf_count=5129153 15294 3748 227886 17490 60429 10703 8398 1947 358051 122459 725525 2830 11182 48415 8254 7620 16355 6342 100357 132085 105258 92446 5564 7047 2555 56915 3441 46556 5243 19955 19823 23674 1281 14213 104991 3272 27636 2548 115 6019 84583 1631 72347 36102 36925 160207 158532 34910 63817 556 1177 2351 3925 888 2224 495 2592 1901 5738 3292 93397 56107
internal_value=0.000190393 0.0244767 -0.0534574 0.0351016 0.00421016 0.0298209 0.00970109 0.02845 -0.0301612 -0.00860755 -0.0610512 0.016496 -0.0228615 0.00293076 0.0477478 -0.00103384 0.0243753 0.025824 -0.0403013 -0.0183307 -0.0253329 0.0146793 0.0131829 0.0427916 0.0246465 0.00859472 -0.0508677 -0.00574572 0.0118817 -0.00383166 0.0343279 -0.0149211 0.0364416 0.0127042 -0.0518069 0.0384382 0.00460666 0.0211429 0.0389267 -0.0629701 0.0236041 0.0343603 -0.0124798 0.0176383 0.0215973 -0.0305884 -0.00701587 0.0332274 0.00985263 0.0439242 0.0410131 0.0365682 0.0417135 0.0489952 0.0499821 0.0365179 0.0353876 0.0283588 0.0534444 0.0502274 -0.030721 0.0198018
internal_weight=186896 128655 58241.7 84404.6 44249.9 59541.9 30978.9 55305.6 14317.7 13271 43924.1 15461.4 8324.81 15517.5 24862.8 7460.06 32663.2 29056.6 5992.85 5810.9 7835.39 14551.2 13519.2 13295.3 26865 9388.66 6964.47 6128.87 7398.07 6752.42 22642.4 2628.36 16721.4 3606.61 6847.08 1887.81 1840.51 1766.1 8991.38 36959.6 24977.2 13082.6 3331.85 8234.45 4923.1 5207.04 5501.38 12111.5 6738.9 3638.83 3115.68 2422.16 1815.17 1735.81 1719.77 7255.56 6888.26 5921.03 11567.5 6811.89 2776.41 9252.22
internal_count=8386772 1337631 7049141 345699 991932 297564 535987 286861 1080012 455945 5969129 182265 528207 353722 48135 201401 217359 169214 551805 254544 517025 179435 171037 30851 162872 174390 833957 179332 117475 193781 69502 128932 47778 48145 830516 5827 31384 16761 23804 5135172 157045 38488 118903 78591 42489 388093 173826 36857 112232 9290 8734 7557 5206 3227 3112 20577 20082 21724 17284 11546 193754 72462
is_linear=0
shrinkage=0.05


Tree=13
num_leaves=63
num_cat=0
split_feature=7 7 7 7 7 20 20 20 3 7 7 3 8 8 7 8 2 3 7 7 6 8 17 6 20 10 7 20 8 13 8 10 3 10 5 19 19 13 20 17 19 20 20 15 2 9 20 9 19 2 8 7 20 19 20 14 19 6 17 14 7 3
split_gain=89448.5 8899.68 5945.26 1785.11 1206.38 562.382 508.352 427.925 383.607 349.178 338.524 306.194 288.609 276.866 274.919 262.124 260.154 202.816 182.567 178.282 177.957 176.596 167.581 164.361 157.781 142.926 136.238 134.788 123.317 106.56 103.621 96.8578 92.997 108.419 91.4615 90.5355 105.352 86.9602 85.9731 85.6532 82.2739 80.8453 80.0497 75.6556 75.5268 72.5211 72.3991 71.8923 78.8419 85.3773 84.1759 71.4991 67.9537 67.7144 67.2572 75.8654 65.7473 65.126 63.3345 62.3583 61.991 61.9742
threshold=3160.0000000000005 16817.000000000004 593.50000000000011 39142.500000000007 8202.5000000000018 0.35424108803272253 0.36574769020080572 0.38896141946315771 0.069178212434053435 61754.000000000007 207.50000000000003 1.0000000180025095e-35 0.45722997188568121 0.36220037937164312 23598.500000000004 0.48093944787979132 0.049390243366360671 0.063430374488234534 1126.5000000000002 1628.5000000000002 3.9667345285415654 0.71885213255882274 2.5000000000000004 3.8035142421722417 0.26545275747776037 3012.5000000000005 11645.500000000002 0.49098069965839392 0.57759502530097973 0.88916522264480602 0.59020894765853893 3640.0000000000005 0.043302519246935851 32.500000000000007 1.0000000180025095e-35 0.34327337145805364 0.26715356111526495 0.99727171659469616 0.31520003080368048 2.5000000000000004 0.3333395123481751 0.28779788315296179 0.33496943116188055 0.8568968176841737 0.22653958946466449 0.73523351550102245 0.55524858832359325 0.77181950211524974 0.24696125835180285 0.08856209367513658 0.55105197429656994 5724.0000000000009 0.27118942141532904 0.27909630537033087 0.30367237329483038 253.50000000000003 0.3501525223255158 4.154625892639161 2.5000000000000004 287.50000000000006 1318.5000000000002 0.87357372045516979
decision_type=2 2 2 2 2 2 2 2 2 2 2 2 2 2 2 2 2 2 2 2 2 2 2 2 2 2 2 2 2 2 2 2 2 2 2 2 2 2 2 2 2 2 2 2 2 2 2 2 2 2 2 2 2 2 2 2 2 2 2 2 2 2
left_child=2 4 10 8 6 13 15 12 14 16 46 18 29 60 40 31 23 20 -7 -15 39 24 -20 52 -16 32 -14 30 -10 53 -12 51 33 -9 -30 36 -26 54 -17 -8 44 -28 -38 -23 -3 -18 -1 48 49 -35 -50 -2 -5 -6 55 -11 -53 -22 -27 -25 -4 -13
right_child=1 3 5 9 7 11 17 25 28 37 27 61 26 19 21 38 45 -19 22 -21 57 43 -24 59 35 58 41 -29 34 -31 -32 -33 -34 47 -36 -37 42 -39 -40 -41 -42 -43 -44 -45 -46 -47 -48 -49 50 -51 -52 56 -54 -55 -56 -57 -58 -59 -60 -61 -62 -63
leaf_value=-0.062033205169080424 -0.024426280622849746 0.021757944262434575 -0.050645324573393768 -0.01476895307755504 0.055241623106186168 -0.031483528573785745 0.006232286026837325 -0.016345273220078282 0.030144048175429424 0.024401394191560687 -0.053096228907275694 0.00782696637588314 0.0091166425411473989 -0.034150592922811598 0.0079573237458869742 -0.0070900897669547366 0.034834692464442915 0.027695298209838421 -0.0060929080273735203 -0.019248181485754721 0.029326808176089725 0.034459709109149021 -0.02945739541439675 0.039131375213534866 0.02706648529462842 0.026204932901579426 0.0064651844704250007 0.033684876256926538 0.035741840294654895 -0.0027053744164665067 -0.036338116159883575 -0.0027186130944455958 0.031514879686076469 0.00044061967614779271 0.053511646919338143 0.010252970497085581 0.026230864169982878 0.056399469279712837 0.0033668348573016242 -0.0074035410301250886 0.0030523632739210098 0.020910666984007308 0.040725114655998366 0.047567077017485769 0.049300790997203192 0.051151725342883529 0.0064946573572932627 0.027945076656973791 0.014347342750307602 0.039731530389810393 0.035247463953754325 -0.006000852670425761 0.027934530860623519 0.011725312119273686 0.049940288968337271 0.062626204689113923 -0.030600490311695167 0.0015609512392767933 0.05004929820912421 0.055948270022912777 -0.037515857578008162 0.041641145467383858
